%YAML:1.0
my_svm: !!opencv-ml-svm
   svm_type: C_SVC
   kernel: { type:LINEAR }
   C: 1.
   term_criteria: { epsilon:9.9999999747524271e-007, iterations:1000 }
   var_all: 203
   var_count: 203
   class_count: 2
   class_labels: !!opencv-matrix
      rows: 1
      cols: 2
      dt: i
      data: [ 0, 1 ]
   sv_total: 1
   support_vectors:
      - [ 8.03171482e-004, 1.82017411e-005, -6.87103427e-004,
          -1.25286402e-004, 6.93817216e-004, -3.35196353e-004,
          2.80184213e-006, -9.45772481e-005, 4.09394095e-004,
          5.05943724e-004, -1.67069549e-004, 1.21697019e-004,
          1.61621982e-004, -1.73521126e-004, -5.06444485e-005,
          5.59148684e-005, -3.85283929e-005, 3.77165488e-005,
          1.56697759e-004, -4.23625956e-004, 9.97807074e-005,
          -2.65085051e-004, -3.46082816e-004, 2.65542767e-004,
          -4.36469825e-004, -1.72299806e-005, 9.06922360e-005,
          -1.63519762e-005, 4.35571215e-004, 3.65130254e-005,
          -3.93091032e-004, -7.32124099e-005, 8.42524823e-005,
          -1.09050423e-004, 1.19853568e-004, -2.57877284e-004,
          -1.60169162e-004, -5.62321278e-004, 2.24902935e-004,
          -2.43391100e-004, -2.73590776e-005, -1.71118547e-004,
          2.25920245e-004, -3.65868364e-005, -1.89259488e-004,
          2.69873126e-004, 6.01477397e-004, -3.02116037e-004,
          -3.75165691e-005, -6.54517644e-005, -2.32100880e-004,
          5.70358361e-006, -8.80583611e-005, 2.22161892e-004,
          2.75687460e-004, 7.53471322e-005, -3.89496527e-005,
          2.95840873e-004, -4.29268694e-004, 2.51553342e-004,
          -4.82571544e-004, 2.57686715e-005, 2.46038835e-004,
          1.72925327e-004, -1.44953126e-004, 1.22478188e-004,
          2.23220035e-004, 8.65903130e-005, -6.25763641e-005,
          9.62504928e-005, 1.44090242e-004, -3.24484514e-004,
          1.89638031e-005, -1.23109043e-004, 2.15523309e-004,
          8.96271085e-005, -5.17794979e-005, -2.44829745e-004,
          -2.43905917e-004, 1.27221050e-004, -4.29384563e-005,
          1.75806141e-004, 3.60349404e-005, -1.70925778e-004,
          -5.05737087e-004, 2.37022788e-004, -3.66177061e-004,
          -2.35488347e-004, 4.16940195e-004, 4.37010196e-004,
          2.79770575e-005, -1.65411417e-004, -1.98616646e-004,
          1.34130620e-004, -2.15550739e-004, -1.78393835e-004,
          7.43216369e-005, 1.60780895e-004, 1.96886802e-004,
          4.75213710e-005, 3.11574899e-004, 1.05307146e-004,
          2.60225701e-004, 3.24662105e-005, 2.25122676e-005,
          1.47516330e-004, -1.92163003e-004, 1.61031014e-004,
          -2.88507756e-004, -2.81488232e-004, 1.20179582e-004,
          -7.89702335e-006, 9.51692564e-005, -9.29218950e-005,
          1.73575318e-005, 1.72664542e-004, -2.75734725e-004,
          -1.04462335e-004, -2.00051756e-004, -6.69309229e-005,
          -1.50983033e-004, 4.48343024e-004, 2.47848016e-004,
          2.08847647e-004, -5.67073876e-004, 1.68690720e-004,
          -1.37917115e-004, 1.67545513e-004, 2.59010092e-004,
          -4.13935661e-004, -2.86021299e-004, -1.15118200e-004,
          2.39652363e-004, 4.30997170e-004, -4.75304987e-005,
          -8.59360909e-004, -3.41854720e-005, -2.60009372e-004,
          -1.09297616e-004, -1.88454505e-004, 3.12401826e-004,
          -2.62528745e-004, -3.22811335e-004, -8.14020168e-005,
          -9.07717622e-005, 3.02755769e-004, -2.85752049e-005,
          1.61690055e-004, -2.88974901e-004, -1.63688266e-004,
          3.14454956e-004, 2.48927154e-005, 1.54471316e-004,
          3.17662343e-004, -2.77921121e-004, -2.72861071e-004,
          -1.43928803e-004, 3.03571345e-004, -1.49885978e-004,
          1.25785882e-004, 1.74254368e-004, 7.85308366e-005,
          1.62182390e-004, -2.74554361e-004, 1.06862753e-004,
          2.48365599e-004, 2.38707420e-004, -5.07949211e-004,
          -3.61669197e-004, 6.64110179e-004, 3.46007408e-004,
          3.59837490e-004, -2.30656413e-004, -5.87675720e-004,
          -3.00458341e-004, -4.48706851e-004, -2.69915297e-004,
          -5.86393289e-004, 8.13825955e-006, 5.26278745e-004,
          2.92937417e-004, -2.41801128e-004, 3.53036681e-004,
          -1.38541596e-004, 4.18482814e-004, 8.60011351e-005,
          3.25132016e-004, 3.74503841e-004, -5.24157294e-005,
          6.48617977e-004, -1.88515842e-004, -4.18471638e-004,
          1.79822600e-004, -4.65377147e-004, -4.13796690e-004,
          4.05494124e-004, -2.71710014e-004, -3.29900475e-004,
          -6.35119723e-005, -6.67018990e-004, -7.62569398e-005,
          -1.83162891e-004, 1.81233539e-004 ]
   decision_functions:
      -
         sv_count: 1
         rho: -4.9827225652487867e-001
         alpha: [ 1. ]
         index: [ 0 ]
