%YAML:1.0
my_svm: !!opencv-ml-svm
   svm_type: C_SVC
   kernel: { type:LINEAR }
   C: 5.0000000000000000e-001
   term_criteria: { epsilon:2.2204460492503131e-016, iterations:1500 }
   var_all: 200
   var_count: 200
   class_count: 2
   class_labels: !!opencv-matrix
      rows: 1
      cols: 2
      dt: i
      data: [ 0, 1 ]
   sv_total: 1
   support_vectors:
      - [ 1.29981186e-006, 5.21483742e-007, 5.24460006e-007,
          3.01036692e-007, -3.77268776e-007, -8.30009299e-007,
          3.22276264e-007, -1.29016530e-006, -1.34700841e-007,
          7.64810466e-007, -3.73536665e-007, 8.57980410e-007,
          -4.12648234e-007, -1.99160596e-007, 1.11705060e-006,
          -1.70576504e-006, -8.75455157e-007, 9.58379132e-007,
          -3.65954918e-007, 2.61114508e-007, -4.14207250e-007,
          2.07466451e-006, 1.32227046e-006, -2.39836567e-007,
          3.86971692e-007, 6.20784817e-007, 8.37397181e-007,
          6.02985665e-007, 1.16425940e-006, 2.38629724e-007,
          -3.29131211e-007, -2.70422930e-007, 7.58034417e-008,
          -7.22345249e-007, 5.20152582e-007, 7.55674705e-008,
          5.39974792e-007, 3.78568501e-007, 3.53039923e-007,
          1.55317286e-006, -9.58350370e-007, -1.36640335e-006,
          -9.06689422e-007, -2.34190694e-007, 1.31272898e-007,
          -7.68964583e-007, -2.74434399e-007, 6.19691775e-007,
          1.01934361e-007, -9.07553499e-008, 4.13451424e-008,
          1.39388874e-007, 4.53788459e-007, -1.31119862e-006,
          5.35255751e-008, 5.33680549e-008, 8.09258935e-008,
          -3.68784413e-007, -1.30887008e-006, 1.37347240e-006,
          -2.51714965e-007, 3.55020006e-007, 3.07794537e-008,
          6.56643664e-008, -3.37274372e-007, -3.81852885e-007,
          -1.11082363e-006, 7.17103433e-007, -1.45838089e-006,
          3.94278828e-007, -7.70532722e-007, -1.41492421e-007,
          -6.06043955e-007, 7.00592750e-007, 3.99309329e-007,
          1.17731759e-006, 2.63158114e-007, -5.91430705e-007,
          2.72052972e-007, 9.50002345e-007, 3.88665711e-007,
          -3.34839427e-007, -7.52213396e-007, -5.71469172e-007,
          5.94478635e-008, -6.88894261e-007, 1.19987635e-006,
          1.94635081e-008, -4.00026806e-007, -1.35971523e-009,
          -1.05991046e-006, 1.73175351e-007, -4.50054038e-008,
          2.43236315e-007, -3.09911599e-007, -3.10321553e-007,
          7.24258200e-007, 7.92155845e-007, -1.47270400e-008,
          -7.84713507e-007, -1.18509547e-006, 5.84257513e-008,
          -8.35873948e-007, -8.88163697e-007, 9.78115736e-007,
          -1.44373246e-006, 5.22733387e-007, 1.32077446e-007,
          1.02846528e-007, 7.49831486e-007, 1.88079753e-007,
          -5.76473383e-007, -2.86459368e-007, -1.03553486e-006,
          -2.69688343e-007, 3.98790583e-008, -4.55903603e-007,
          9.12321070e-007, 6.64816042e-008, 9.44789178e-007,
          2.03181827e-007, -1.98879789e-007, 3.47735011e-007,
          4.76309765e-007, 1.09255870e-006, 3.07754590e-007,
          3.67771918e-007, 2.09409151e-007, 2.32599177e-007,
          -5.11552344e-007, -8.19286583e-007, -2.25247231e-006,
          4.63951778e-007, -6.79824836e-007, -4.43379832e-007,
          -5.82700636e-007, 5.19180105e-007, -6.81890299e-007,
          -1.33747926e-006, 2.13123812e-007, -6.91959656e-007,
          -1.13108763e-006, -1.03248351e-006, 3.83843599e-007,
          2.28564190e-007, -9.96902145e-007, 8.95537866e-008,
          2.57738270e-006, -1.62183966e-007, 5.24844779e-007,
          2.51332636e-007, 1.39788927e-008, 6.94048140e-007,
          -9.97958523e-007, 7.06307191e-008, 7.08606080e-007,
          4.65031178e-007, -8.67987524e-007, -1.10970184e-007,
          1.15485739e-006, 6.89369358e-007, -1.47859294e-006,
          -2.45418960e-007, 9.45851582e-007, -1.07870721e-006,
          1.00150238e-007, 6.03787271e-007, 1.28716025e-007,
          1.98627322e-006, -2.16951705e-007, -1.00189176e-007,
          1.54081690e-007, 1.98534326e-006, -1.88122357e-007,
          1.79827325e-007, -1.41721716e-006, 1.80973302e-006,
          2.54915221e-007, 4.64199729e-007, -6.22097218e-007,
          4.63431832e-007, -2.47482831e-006, 2.48036997e-007,
          -6.10308348e-007, -2.26657050e-007, 5.18474565e-007,
          5.20773256e-007, 1.21959161e-007, 1.46601610e-006,
          -1.23351219e-006, -1.09166869e-007, -3.58496486e-008,
          -1.48072763e-006, -1.55253269e-006, 6.43987903e-008,
          -8.83704274e-007, 5.64801439e-007, 1.00129193e-006,
          -3.48408179e-007, 4.22452587e-007 ]
   decision_functions:
      -
         sv_count: 1
         rho: 1.5666641662086628e-001
         alpha: [ 1. ]
         index: [ 0 ]
