%YAML:1.0
my_svm: !!opencv-ml-svm
   svm_type: C_SVC
   kernel: { type:LINEAR }
   C: 5.0000000000000000e-001
   term_criteria: { epsilon:2.2204460492503131e-016, iterations:1500 }
   var_all: 200
   var_count: 200
   class_count: 2
   class_labels: !!opencv-matrix
      rows: 1
      cols: 2
      dt: i
      data: [ 0, 1 ]
   sv_total: 1
   support_vectors:
      - [ -2.49292407e-006, 6.16474665e-007, 9.27825056e-007,
          8.40950847e-008, -1.85805391e-007, -7.20130174e-007,
          1.51604593e-006, 1.77932554e-006, -2.49468997e-007,
          2.84023145e-006, 2.41102089e-006, -6.96190625e-008,
          1.98276462e-006, 1.00196735e-006, -6.93945736e-008,
          1.53585290e-007, -4.80585959e-006, -1.25880817e-007,
          5.75664671e-007, 3.20766958e-007, 1.29464172e-006,
          -1.90931883e-006, -6.13267275e-007, -2.08662627e-007,
          1.15934881e-006, -3.03971717e-007, -5.76079310e-006,
          2.07788548e-006, 8.17242238e-008, -4.26004249e-007,
          1.53332621e-006, 9.99031272e-007, 6.17835440e-007,
          -1.07340770e-006, -1.62682591e-006, 3.36992002e-006,
          1.04027720e-006, -1.12791497e-006, -2.95253085e-006,
          1.29540098e-007, -2.02817276e-007, 6.10478594e-007,
          3.78150207e-006, 6.29509316e-007, 2.83382953e-008,
          -1.87071782e-006, -8.66442406e-007, -3.64824655e-006,
          1.03503305e-006, 3.04730656e-006, -9.49303796e-007,
          5.29289537e-006, 3.31293063e-006, 7.13968973e-008,
          9.25242091e-007, -1.42301747e-006, -1.50097762e-007,
          -1.06839093e-006, 2.11457609e-006, -2.40740064e-006,
          -1.20374796e-006, 3.93831851e-006, 1.81906603e-006,
          1.90300352e-006, 1.09285475e-006, 2.87429475e-006,
          2.29799207e-006, -1.60716775e-006, -2.28283761e-006,
          -1.96782707e-006, -1.75428966e-006, -4.88553326e-007,
          -2.11100746e-006, -2.65354993e-006, -5.49025856e-007,
          7.89372791e-007, 4.04158499e-007, -4.98886993e-006,
          3.20274239e-007, 5.43714123e-007, -3.75234822e-006,
          -5.44289151e-007, -7.50851882e-007, 1.32646164e-006,
          -1.23110522e-006, 3.41683585e-006, 4.63461816e-007,
          2.87047146e-006, 4.36127493e-007, -9.82705842e-007,
          -4.76388004e-006, -5.46221024e-009, 1.85071812e-007,
          -2.67188511e-007, 5.12708255e-007, -2.30970477e-006,
          -2.70260898e-006, 2.07846142e-006, 1.56796352e-006,
          1.68830752e-006, 1.53171072e-007, 5.80642734e-007,
          1.19741446e-006, -1.43088539e-006, 1.58535420e-006,
          2.15471277e-006, -1.88371473e-006, 2.27267822e-008,
          1.18448474e-006, -2.42532394e-007, -3.78371681e-007,
          -3.83983615e-006, -3.20390313e-007, -1.23768487e-007,
          -3.85411624e-007, 3.06031620e-006, 7.27973543e-007,
          5.28811597e-007, 1.18194032e-006, 1.49414723e-006,
          -2.75223528e-007, 1.04741480e-006, 1.96882092e-006,
          2.42677584e-006, 3.49756448e-007, 8.26610403e-007,
          -1.51581077e-007, 1.64228084e-006, -2.80776135e-007,
          8.38515177e-008, 7.23573123e-007, -1.30605372e-006,
          -2.96829558e-006, -2.12340910e-006, -1.95266034e-006,
          1.30926901e-006, -2.49433270e-007, 1.94485915e-006,
          2.94092456e-006, 1.90057710e-006, 8.33617776e-007,
          3.95436155e-006, 3.97637859e-006, 1.17562956e-006,
          8.65410925e-007, 4.21069501e-007, 2.14703186e-006,
          -3.49655664e-007, -1.80058933e-007, -1.12940756e-006,
          1.45062222e-006, -2.03113473e-006, -4.61879972e-006,
          -9.68270228e-007, 1.42764759e-006, 9.72962766e-007,
          2.00270165e-006, 1.89521006e-006, 1.68703923e-006,
          -2.21224968e-006, 2.59987925e-008, -2.37292829e-006,
          2.14609440e-006, 1.47241974e-006, 1.33042624e-006,
          -4.13062111e-007, 1.40305497e-006, 1.76127219e-006,
          -2.89400123e-006, -2.36738083e-006, 1.38666337e-006,
          -9.87056296e-007, -9.16143392e-007, 1.57197655e-006,
          -2.55152628e-007, -1.34540790e-006, -2.81097596e-006,
          2.39428664e-006, -1.39188739e-006, -4.96816654e-007,
          8.82017673e-007, 4.65573009e-007, -1.97512236e-006,
          2.78623838e-006, -1.33323522e-006, -1.29893650e-007,
          3.50381538e-006, 2.03733202e-006, 8.72570581e-007,
          2.74775147e-007, 3.08994629e-007, 1.10791211e-006,
          -9.93514846e-007, 2.51755978e-006, -1.13814474e-006,
          3.37199452e-007, -1.16203341e-006, 3.05207254e-006,
          3.26290797e-006, -1.90776609e-006 ]
   decision_functions:
      -
         sv_count: 1
         rho: -1.6493998825727663e-001
         alpha: [ 1. ]
         index: [ 0 ]
