FANN_FLO_2.1
num_layers=3
learning_rate=0.700000
connection_rate=1.000000
network_type=0
learning_momentum=0.000000
training_algorithm=2
train_error_function=1
train_stop_function=0
cascade_output_change_fraction=0.010000
quickprop_decay=-0.000100
quickprop_mu=1.750000
rprop_increase_factor=1.200000
rprop_decrease_factor=0.500000
rprop_delta_min=0.000000
rprop_delta_max=50.000000
rprop_delta_zero=0.100000
cascade_output_stagnation_epochs=12
cascade_candidate_change_fraction=0.010000
cascade_candidate_stagnation_epochs=12
cascade_max_out_epochs=150
cascade_min_out_epochs=50
cascade_max_cand_epochs=150
cascade_min_cand_epochs=50
cascade_num_candidate_groups=2
bit_fail_limit=3.49999994039535520000e-001
cascade_candidate_limit=1.00000000000000000000e+003
cascade_weight_multiplier=4.00000005960464480000e-001
cascade_activation_functions_count=10
cascade_activation_functions=3 5 7 8 10 11 14 15 16 17 
cascade_activation_steepnesses_count=4
cascade_activation_steepnesses=2.50000000000000000000e-001 5.00000000000000000000e-001 7.50000000000000000000e-001 1.00000000000000000000e+000 
layer_sizes=6 4 2 
scale_included=0
neurons (num_inputs, activation_function, activation_steepness)=(0, 0, 0.00000000000000000000e+000) (0, 0, 0.00000000000000000000e+000) (0, 0, 0.00000000000000000000e+000) (0, 0, 0.00000000000000000000e+000) (0, 0, 0.00000000000000000000e+000) (0, 0, 0.00000000000000000000e+000) (6, 5, 5.00000000000000000000e-001) (6, 5, 5.00000000000000000000e-001) (6, 5, 5.00000000000000000000e-001) (0, 5, 0.00000000000000000000e+000) (4, 5, 5.00000000000000000000e-001) (0, 5, 0.00000000000000000000e+000) 
connections (connected_to_neuron, weight)=(0, -7.42187500000000000000e-002) (1, 2.87292487919330600000e-002) (2, 4.99511733651161190000e-002) (3, -6.14135749638080600000e-002) (4, 8.83361846208572390000e-002) (5, 7.44323730468750000000e-002) (0, 6.31225630640983580000e-002) (1, -2.96630873344838620000e-003) (2, -2.74047851562500000000e-002) (3, -1.77001953125000000000e-002) (4, 3.92150878906250000000e-002) (5, 2.47131343930959700000e-002) (0, 5.64331077039241790000e-002) (1, -7.41699263453483580000e-002) (2, -6.36230483651161190000e-002) (3, 1.13403322175145150000e-002) (4, 7.82348662614822390000e-002) (5, 6.73278793692588810000e-002) (6, 3.53210456669330600000e-002) (7, -8.82507339119911190000e-002) (8, 8.25866684317588810000e-002) (9, 4.57763671875000000000e-002) 
