FANN_FLO_2.1
num_layers=3
learning_rate=0.700000
connection_rate=1.000000
network_type=0
learning_momentum=0.000000
training_algorithm=2
train_error_function=1
train_stop_function=0
cascade_output_change_fraction=0.010000
quickprop_decay=-0.000100
quickprop_mu=1.750000
rprop_increase_factor=1.200000
rprop_decrease_factor=0.500000
rprop_delta_min=0.000000
rprop_delta_max=50.000000
rprop_delta_zero=0.100000
cascade_output_stagnation_epochs=12
cascade_candidate_change_fraction=0.010000
cascade_candidate_stagnation_epochs=12
cascade_max_out_epochs=150
cascade_min_out_epochs=50
cascade_max_cand_epochs=150
cascade_min_cand_epochs=50
cascade_num_candidate_groups=2
bit_fail_limit=3.49999994039535520000e-001
cascade_candidate_limit=1.00000000000000000000e+003
cascade_weight_multiplier=4.00000005960464480000e-001
cascade_activation_functions_count=10
cascade_activation_functions=3 5 7 8 10 11 14 15 16 17 
cascade_activation_steepnesses_count=4
cascade_activation_steepnesses=2.50000000000000000000e-001 5.00000000000000000000e-001 7.50000000000000000000e-001 1.00000000000000000000e+000 
layer_sizes=9 11 3 
scale_included=0
neurons (num_inputs, activation_function, activation_steepness)=(0, 0, 0.00000000000000000000e+000) (0, 0, 0.00000000000000000000e+000) (0, 0, 0.00000000000000000000e+000) (0, 0, 0.00000000000000000000e+000) (0, 0, 0.00000000000000000000e+000) (0, 0, 0.00000000000000000000e+000) (0, 0, 0.00000000000000000000e+000) (0, 0, 0.00000000000000000000e+000) (0, 0, 0.00000000000000000000e+000) (9, 5, 5.00000000000000000000e-001) (9, 5, 5.00000000000000000000e-001) (9, 5, 5.00000000000000000000e-001) (9, 5, 5.00000000000000000000e-001) (9, 5, 5.00000000000000000000e-001) (9, 5, 5.00000000000000000000e-001) (9, 5, 5.00000000000000000000e-001) (9, 5, 5.00000000000000000000e-001) (9, 5, 5.00000000000000000000e-001) (9, 5, 5.00000000000000000000e-001) (0, 5, 0.00000000000000000000e+000) (11, 5, 5.00000000000000000000e-001) (11, 5, 5.00000000000000000000e-001) (0, 5, 0.00000000000000000000e+000) 
connections (connected_to_neuron, weight)=(0, -3.45860302448272710000e-001) (1, 3.96801233291625980000e-002) (2, -1.62035882472991940000e-001) (3, 3.51069308817386630000e-002) (4, 4.95810585021972660000e+001) (5, -3.09329759329557420000e-002) (6, 7.72117227315902710000e-002) (7, 1.50000000000000000000e+003) (8, -4.20146255493164060000e+001) (0, 1.21059870719909670000e+000) (1, -2.01778952032327650000e-002) (2, -4.49777692556381230000e-002) (3, -6.86075864359736440000e-003) (4, 2.16539762914180760000e-002) (5, 5.82084944471716880000e-003) (6, -1.50851020589470860000e-002) (7, 1.50000000000000000000e+003) (8, -5.03315985202789310000e-001) (0, 1.49994201660156250000e+003) (1, 1.49960986328125000000e+003) (2, 1.50000000000000000000e+003) (3, 1.49993249511718750000e+003) (4, 1.49974548339843750000e+003) (5, -1.49999975585937500000e+003) (6, -1.37013732910156250000e+003) (7, 1.50000000000000000000e+003) (8, 1.18630627441406250000e+003) (0, 2.06782832741737370000e-001) (1, -3.24498951435089110000e-001) (2, -3.90679150819778440000e-001) (3, 5.26821098327636720000e+001) (4, 4.68201152980327610000e-002) (5, -1.83692723512649540000e-002) (6, 1.09839551150798800000e-002) (7, 1.50000000000000000000e+003) (8, -4.45247192382812500000e+001) (0, 2.29133591055870060000e-002) (1, -5.97549743652343750000e+001) (2, 2.61213362216949460000e-001) (3, 1.42315730452537540000e-001) (4, -2.67849743366241460000e-001) (5, -1.07652314007282260000e-001) (6, -8.69831293821334840000e-002) (7, 1.50000000000000000000e+003) (8, 4.94847831726074220000e+001) (0, 1.40488000488281250000e+003) (1, -1.31451766967773440000e+002) (2, -1.49948022460937500000e+003) (3, -1.33213549804687500000e+003) (4, 1.13402856445312500000e+003) (5, 9.14983272552490230000e+000) (6, 1.36860241699218750000e+003) (7, 1.50000000000000000000e+003) (8, 1.50000000000000000000e+003) (0, -3.99557024240493770000e-001) (1, 3.48185151815414430000e-001) (2, 1.26175628975033760000e-002) (3, -1.00943908095359800000e-001) (4, 4.00806516408920290000e-001) (5, -7.62467956542968750000e+001) (6, -5.61665929853916170000e-002) (7, 1.50000000000000000000e+003) (8, 5.46970748901367190000e+001) (0, 1.35858014225959780000e-001) (1, -4.82191750779747960000e-003) (2, 1.64244189858436580000e-001) (3, -1.56477428972721100000e-002) (4, 7.18661770224571230000e-003) (5, -2.93625751510262490000e-004) (6, 8.24848830234259370000e-004) (7, 1.50000000000000000000e+003) (8, 3.09538155794143680000e-001) (0, -2.73474931716918950000e-001) (1, -1.42707988619804380000e-001) (2, -4.05866444110870360000e-001) (3, 4.16744723916053770000e-002) (4, 2.65704840421676640000e-001) (5, -1.53982937335968020000e-001) (6, 6.54086761474609380000e+001) (7, 1.50000000000000000000e+003) (8, -5.44585533142089840000e+001) (0, 3.03309488296508790000e+000) (1, -3.69621291756629940000e-002) (2, -1.36878425255417820000e-002) (3, -2.60435305535793300000e-002) (4, 7.77379795908927920000e-002) (5, 1.58699303865432740000e-002) (6, -3.83168347179889680000e-002) (7, 1.50000000000000000000e+003) (8, -1.19249737262725830000e+000) (9, 8.25621891021728520000e+000) (10, 4.11379661560058590000e+001) (11, 2.79952096939086910000e+000) (12, -1.07496492564678190000e-002) (13, -3.89024662971496580000e+000) (14, -1.01878028362989430000e-002) (15, -8.75619240105152130000e-004) (16, 1.00672101974487300000e+001) (17, -1.03112624492496250000e-003) (18, -1.78559589385986330000e+001) (19, 8.16204357147216800000e+000) (9, 2.91832070797681810000e-003) (10, -3.88943910598754880000e+000) (11, 3.96577882766723630000e+000) (12, 8.69543075561523440000e+000) (13, -1.41289634630084040000e-002) (14, -7.07081183791160580000e-002) (15, -2.94011831283569340000e+000) (16, 2.25621929168701170000e+001) (17, 8.13066577911376950000e+000) (18, 6.70772850513458250000e-001) (19, 1.12314376831054690000e+001) 
