FANN_FLO_2.1
num_layers=3
learning_rate=0.700000
connection_rate=1.000000
network_type=0
learning_momentum=0.000000
training_algorithm=2
train_error_function=1
train_stop_function=0
cascade_output_change_fraction=0.010000
quickprop_decay=-0.000100
quickprop_mu=1.750000
rprop_increase_factor=1.200000
rprop_decrease_factor=0.500000
rprop_delta_min=0.000000
rprop_delta_max=50.000000
rprop_delta_zero=0.100000
cascade_output_stagnation_epochs=12
cascade_candidate_change_fraction=0.010000
cascade_candidate_stagnation_epochs=12
cascade_max_out_epochs=150
cascade_min_out_epochs=50
cascade_max_cand_epochs=150
cascade_min_cand_epochs=50
cascade_num_candidate_groups=2
bit_fail_limit=3.49999994039535520000e-001
cascade_candidate_limit=1.00000000000000000000e+003
cascade_weight_multiplier=4.00000005960464480000e-001
cascade_activation_functions_count=10
cascade_activation_functions=3 5 7 8 10 11 14 15 16 17 
cascade_activation_steepnesses_count=4
cascade_activation_steepnesses=2.50000000000000000000e-001 5.00000000000000000000e-001 7.50000000000000000000e-001 1.00000000000000000000e+000 
layer_sizes=9 11 2 
scale_included=0
neurons (num_inputs, activation_function, activation_steepness)=(0, 0, 0.00000000000000000000e+000) (0, 0, 0.00000000000000000000e+000) (0, 0, 0.00000000000000000000e+000) (0, 0, 0.00000000000000000000e+000) (0, 0, 0.00000000000000000000e+000) (0, 0, 0.00000000000000000000e+000) (0, 0, 0.00000000000000000000e+000) (0, 0, 0.00000000000000000000e+000) (0, 0, 0.00000000000000000000e+000) (9, 5, 5.00000000000000000000e-001) (9, 5, 5.00000000000000000000e-001) (9, 5, 5.00000000000000000000e-001) (9, 5, 5.00000000000000000000e-001) (9, 5, 5.00000000000000000000e-001) (9, 5, 5.00000000000000000000e-001) (9, 5, 5.00000000000000000000e-001) (9, 5, 5.00000000000000000000e-001) (9, 5, 5.00000000000000000000e-001) (9, 5, 5.00000000000000000000e-001) (0, 5, 0.00000000000000000000e+000) (11, 5, 5.00000000000000000000e-001) (0, 5, 0.00000000000000000000e+000) 
connections (connected_to_neuron, weight)=(0, 1.47645178222656250000e+003) (1, -5.06080474853515630000e+002) (2, 1.21497363281250000000e+003) (3, -1.05990051269531250000e+003) (4, -9.87200622558593750000e+002) (5, 1.50000000000000000000e+003) (6, 1.50000000000000000000e+003) (7, 1.50000000000000000000e+003) (8, 4.45709899902343750000e+002) (0, -2.17635437011718750000e+002) (1, 7.05864257812500000000e+002) (2, 1.49798449707031250000e+003) (3, 1.50000000000000000000e+003) (4, 1.17579345703125000000e+003) (5, 1.50000000000000000000e+003) (6, 1.50000000000000000000e+003) (7, 1.50000000000000000000e+003) (8, 1.48856311035156250000e+003) (0, 2.74463317871093750000e+002) (1, 1.10079528808593750000e+003) (2, -4.01459884643554690000e+000) (3, -5.53851652145385740000e+000) (4, -9.99418616294860840000e-001) (5, 1.50000000000000000000e+003) (6, 1.50000000000000000000e+003) (7, 1.50000000000000000000e+003) (8, -8.27943725585937500000e+002) (0, -2.76664978027343750000e+002) (1, -1.03030310058593750000e+003) (2, 1.49434851074218750000e+003) (3, 1.40305017089843750000e+003) (4, 1.38615124511718750000e+003) (5, 1.50000000000000000000e+003) (6, 1.50000000000000000000e+003) (7, 1.50000000000000000000e+003) (8, 1.47168115234375000000e+003) (0, 2.86290311813354490000e+000) (1, -3.55676536560058590000e+001) (2, -3.02780956029891970000e-001) (3, 1.40957579016685490000e-001) (4, -1.99273800849914550000e+000) (5, 1.50000000000000000000e+003) (6, 1.50000000000000000000e+003) (7, 1.50000000000000000000e+003) (8, 3.21406784057617190000e+001) (0, 1.43293481445312500000e+003) (1, 1.09205065917968750000e+003) (2, 6.14419189453125000000e+002) (3, -1.42576354980468750000e+002) (4, 1.25362648010253910000e+002) (5, 1.50000000000000000000e+003) (6, 1.50000000000000000000e+003) (7, 1.50000000000000000000e+003) (8, -1.10727502441406250000e+003) (0, -9.60179977416992190000e+001) (1, 4.31751586914062500000e+002) (2, 1.49983325195312500000e+003) (3, 9.04880310058593750000e+002) (4, 1.17579345703125000000e+003) (5, 1.50000000000000000000e+003) (6, 1.50000000000000000000e+003) (7, 1.50000000000000000000e+003) (8, 1.45382849121093750000e+003) (0, 2.87198066711425780000e+000) (1, 1.04453967285156250000e+003) (2, 1.49937768554687500000e+003) (3, -8.53876113891601560000e+001) (4, 6.75110244750976560000e+001) (5, 1.50000000000000000000e+003) (6, 1.50000000000000000000e+003) (7, 1.50000000000000000000e+003) (8, 1.34556518554687500000e+003) (0, -1.36813369750976560000e+002) (1, 5.59342834472656250000e+002) (2, 1.49935424804687500000e+003) (3, 1.50000000000000000000e+003) (4, 1.17579345703125000000e+003) (5, 1.50000000000000000000e+003) (6, 1.50000000000000000000e+003) (7, 1.50000000000000000000e+003) (8, 1.46811181640625000000e+003) (0, 1.46177172851562500000e+003) (1, 5.08135192871093750000e+002) (2, 1.45686596679687500000e+003) (3, 9.40608581542968750000e+002) (4, 1.50000000000000000000e+003) (5, 1.50000000000000000000e+003) (6, 1.50000000000000000000e+003) (7, 1.50000000000000000000e+003) (8, -7.81746337890625000000e+002) (9, -2.15517338365316390000e-002) (10, 1.61113351583480830000e-001) (11, 2.56283786147832870000e-002) (12, -1.69483613967895510000e+000) (13, 2.38765686750411990000e-001) (14, 3.67889821529388430000e-001) (15, 1.15460884571075440000e+000) (16, 1.49562165141105650000e-001) (17, 2.67546288669109340000e-002) (18, -8.85419100522995000000e-002) (19, -2.41659834980964660000e-001) 
