FANN_FLO_2.1
num_layers=3
learning_rate=0.700000
connection_rate=1.000000
network_type=0
learning_momentum=0.000000
training_algorithm=2
train_error_function=1
train_stop_function=0
cascade_output_change_fraction=0.010000
quickprop_decay=-0.000100
quickprop_mu=1.750000
rprop_increase_factor=1.200000
rprop_decrease_factor=0.500000
rprop_delta_min=0.000000
rprop_delta_max=50.000000
rprop_delta_zero=0.100000
cascade_output_stagnation_epochs=12
cascade_candidate_change_fraction=0.010000
cascade_candidate_stagnation_epochs=12
cascade_max_out_epochs=150
cascade_min_out_epochs=50
cascade_max_cand_epochs=150
cascade_min_cand_epochs=50
cascade_num_candidate_groups=2
bit_fail_limit=3.49999994039535520000e-001
cascade_candidate_limit=1.00000000000000000000e+003
cascade_weight_multiplier=4.00000005960464480000e-001
cascade_activation_functions_count=10
cascade_activation_functions=3 5 7 8 10 11 14 15 16 17 
cascade_activation_steepnesses_count=4
cascade_activation_steepnesses=2.50000000000000000000e-001 5.00000000000000000000e-001 7.50000000000000000000e-001 1.00000000000000000000e+000 
layer_sizes=9 11 3 
scale_included=0
neurons (num_inputs, activation_function, activation_steepness)=(0, 0, 0.00000000000000000000e+000) (0, 0, 0.00000000000000000000e+000) (0, 0, 0.00000000000000000000e+000) (0, 0, 0.00000000000000000000e+000) (0, 0, 0.00000000000000000000e+000) (0, 0, 0.00000000000000000000e+000) (0, 0, 0.00000000000000000000e+000) (0, 0, 0.00000000000000000000e+000) (0, 0, 0.00000000000000000000e+000) (9, 5, 5.00000000000000000000e-001) (9, 5, 5.00000000000000000000e-001) (9, 5, 5.00000000000000000000e-001) (9, 5, 5.00000000000000000000e-001) (9, 5, 5.00000000000000000000e-001) (9, 5, 5.00000000000000000000e-001) (9, 5, 5.00000000000000000000e-001) (9, 5, 5.00000000000000000000e-001) (9, 5, 5.00000000000000000000e-001) (9, 5, 5.00000000000000000000e-001) (0, 5, 0.00000000000000000000e+000) (11, 5, 5.00000000000000000000e-001) (11, 5, 5.00000000000000000000e-001) (0, 5, 0.00000000000000000000e+000) 
connections (connected_to_neuron, weight)=(0, 1.21603747558593750000e+003) (1, 1.50000000000000000000e+003) (2, 1.43400000000000000000e+003) (3, 1.43400000000000000000e+003) (4, -1.35640966796875000000e+003) (5, 1.50000000000000000000e+003) (6, 1.50000000000000000000e+003) (7, 1.50000000000000000000e+003) (8, 1.31454370117187500000e+003) (0, 1.50000000000000000000e+003) (1, 1.45446594238281250000e+003) (2, 4.13479919433593750000e+002) (3, 1.43400000000000000000e+003) (4, 1.50000000000000000000e+003) (5, 1.50000000000000000000e+003) (6, 1.50000000000000000000e+003) (7, 1.50000000000000000000e+003) (8, 1.45417663574218750000e+003) (0, 1.79814208984375000000e+002) (1, -1.81656600952148440000e+002) (2, 4.54003620147705080000e+000) (3, -2.46025104522705080000e+001) (4, 2.86999249458312990000e+000) (5, 1.50000000000000000000e+003) (6, 1.50000000000000000000e+003) (7, 1.50000000000000000000e+003) (8, 5.99543075561523440000e+001) (0, -5.68359924316406250000e+002) (1, 6.81699340820312500000e+002) (2, 3.13302898406982420000e+000) (3, -5.63449584960937500000e+002) (4, 1.27057243347167970000e+002) (5, 1.50000000000000000000e+003) (6, 1.50000000000000000000e+003) (7, 1.50000000000000000000e+003) (8, -7.66598693847656250000e+002) (0, -1.15875964355468750000e+003) (1, -5.58529968261718750000e+002) (2, 2.71752563476562500000e+002) (3, -2.60857055664062500000e+002) (4, -4.28194046020507810000e+000) (5, 1.50000000000000000000e+003) (6, 1.50000000000000000000e+003) (7, 1.50000000000000000000e+003) (8, 1.00463983154296870000e+003) (0, -8.94097900390625000000e+002) (1, 4.23643264770507810000e+001) (2, -9.88886795043945310000e+001) (3, 8.40834960937500000000e+001) (4, 1.15080442428588870000e+001) (5, 1.50000000000000000000e+003) (6, 1.50000000000000000000e+003) (7, 1.50000000000000000000e+003) (8, 8.52439147949218750000e+002) (0, -6.76447906494140620000e+001) (1, -8.41146755218505860000e+000) (2, 2.08491277694702150000e+000) (3, -6.74557089805603030000e-001) (4, 8.20159018039703370000e-001) (5, 1.50000000000000000000e+003) (6, 1.50000000000000000000e+003) (7, 1.50000000000000000000e+003) (8, 5.39428634643554690000e+001) (0, 9.84263916015625000000e+002) (1, -1.39100000000000000000e+003) (2, -1.49212658691406250000e+003) (3, -1.50000000000000000000e+003) (4, 1.50000000000000000000e+003) (5, 1.50000000000000000000e+003) (6, 1.50000000000000000000e+003) (7, 1.50000000000000000000e+003) (8, 1.49994335937500000000e+003) (0, 1.50000000000000000000e+003) (1, 1.50000000000000000000e+003) (2, 1.47618298339843750000e+003) (3, 1.50000000000000000000e+003) (4, -1.19418884277343750000e+003) (5, 1.50000000000000000000e+003) (6, 1.50000000000000000000e+003) (7, 1.50000000000000000000e+003) (8, 1.34011718750000000000e+003) (0, -5.63271179199218750000e+002) (1, 1.42215673828125000000e+003) (2, 2.59201669692993160000e+000) (3, 4.88352727890014650000e+000) (4, 1.32622976303100590000e+001) (5, 1.50000000000000000000e+003) (6, 1.50000000000000000000e+003) (7, 1.50000000000000000000e+003) (8, -5.43237487792968750000e+002) (9, -1.46255075931549070000e-001) (10, -4.33453358709812160000e-002) (11, 1.56746938824653630000e-001) (12, -8.12827721238136290000e-002) (13, -9.30549383163452150000e-001) (14, -8.94374549388885500000e-002) (15, 1.13109338283538820000e+000) (16, -7.78926491737365720000e-001) (17, 6.57997578382492070000e-002) (18, -4.85484689474105830000e-001) (19, 1.44184625148773190000e+000) (9, -7.13453069329261780000e-002) (10, -8.90330597758293150000e-002) (11, -1.29007518291473390000e+000) (12, 9.15527269244194030000e-002) (13, 8.79493236541748050000e-001) (14, 1.59409686923027040000e-001) (15, -1.06251406669616700000e+000) (16, 1.75473287701606750000e-001) (17, -5.94366729259490970000e-001) (18, 1.37389361858367920000e+000) (19, 1.04121959209442140000e+000) 
