FANN_FLO_2.1
num_layers=3
learning_rate=0.700000
connection_rate=1.000000
network_type=0
learning_momentum=0.000000
training_algorithm=2
train_error_function=1
train_stop_function=0
cascade_output_change_fraction=0.010000
quickprop_decay=-0.000100
quickprop_mu=1.750000
rprop_increase_factor=1.200000
rprop_decrease_factor=0.500000
rprop_delta_min=0.000000
rprop_delta_max=50.000000
rprop_delta_zero=0.100000
cascade_output_stagnation_epochs=12
cascade_candidate_change_fraction=0.010000
cascade_candidate_stagnation_epochs=12
cascade_max_out_epochs=150
cascade_min_out_epochs=50
cascade_max_cand_epochs=150
cascade_min_cand_epochs=50
cascade_num_candidate_groups=2
bit_fail_limit=3.49999994039535520000e-001
cascade_candidate_limit=1.00000000000000000000e+003
cascade_weight_multiplier=4.00000005960464480000e-001
cascade_activation_functions_count=10
cascade_activation_functions=3 5 7 8 10 11 14 15 16 17 
cascade_activation_steepnesses_count=4
cascade_activation_steepnesses=2.50000000000000000000e-001 5.00000000000000000000e-001 7.50000000000000000000e-001 1.00000000000000000000e+000 
layer_sizes=9 11 3 
scale_included=0
neurons (num_inputs, activation_function, activation_steepness)=(0, 0, 0.00000000000000000000e+000) (0, 0, 0.00000000000000000000e+000) (0, 0, 0.00000000000000000000e+000) (0, 0, 0.00000000000000000000e+000) (0, 0, 0.00000000000000000000e+000) (0, 0, 0.00000000000000000000e+000) (0, 0, 0.00000000000000000000e+000) (0, 0, 0.00000000000000000000e+000) (0, 0, 0.00000000000000000000e+000) (9, 5, 5.00000000000000000000e-001) (9, 5, 5.00000000000000000000e-001) (9, 5, 5.00000000000000000000e-001) (9, 5, 5.00000000000000000000e-001) (9, 5, 5.00000000000000000000e-001) (9, 5, 5.00000000000000000000e-001) (9, 5, 5.00000000000000000000e-001) (9, 5, 5.00000000000000000000e-001) (9, 5, 5.00000000000000000000e-001) (9, 5, 5.00000000000000000000e-001) (0, 5, 0.00000000000000000000e+000) (11, 5, 5.00000000000000000000e-001) (11, 5, 5.00000000000000000000e-001) (0, 5, 0.00000000000000000000e+000) 
connections (connected_to_neuron, weight)=(0, -9.79766662597656250000e+002) (1, 9.95267700195312500000e+002) (2, 1.50000000000000000000e+003) (3, 3.01258666992187500000e+002) (4, -3.56064422607421870000e+002) (5, 1.50000000000000000000e+003) (6, 1.50000000000000000000e+003) (7, 1.50000000000000000000e+003) (8, 1.30294055175781250000e+003) (0, -3.57222717285156250000e+002) (1, 1.43683935546875000000e+003) (2, 2.35786193847656250000e+002) (3, 1.50000000000000000000e+003) (4, -3.62855499267578120000e+002) (5, 1.50000000000000000000e+003) (6, 1.50000000000000000000e+003) (7, 1.50000000000000000000e+003) (8, 6.49943176269531250000e+002) (0, -1.42152001953125000000e+003) (1, -6.13354759216308590000e+001) (2, -5.65620910644531250000e+002) (3, 1.39364050292968750000e+003) (4, -1.36878900527954100000e+001) (5, 1.50000000000000000000e+003) (6, 1.50000000000000000000e+003) (7, 1.50000000000000000000e+003) (8, 1.49537023925781250000e+003) (0, -1.21540747070312500000e+003) (1, 1.29243347167968750000e+003) (2, 1.06789697265625000000e+003) (3, 1.47007214355468750000e+003) (4, -3.32865875244140620000e+002) (5, 1.50000000000000000000e+003) (6, 1.50000000000000000000e+003) (7, 1.50000000000000000000e+003) (8, 1.01732429504394530000e+002) (0, 1.25178076171875000000e+003) (1, 7.95490417480468750000e+002) (2, 9.78448486328125000000e+002) (3, 1.49930810546875000000e+003) (4, -1.34868090820312500000e+003) (5, 1.50000000000000000000e+003) (6, 1.50000000000000000000e+003) (7, 1.50000000000000000000e+003) (8, 1.29490783691406250000e+003) (0, -1.50000000000000000000e+003) (1, 6.90889160156250000000e+002) (2, 8.51711975097656250000e+002) (3, 1.48139819335937500000e+003) (4, -1.43085083007812500000e+003) (5, 1.50000000000000000000e+003) (6, 1.50000000000000000000e+003) (7, 1.50000000000000000000e+003) (8, 1.00932324218750000000e+003) (0, -5.42741699218750000000e+002) (1, 1.00296551513671870000e+003) (2, 3.73711730957031250000e+002) (3, -7.74908813476562500000e+002) (4, -1.00745880126953120000e+003) (5, 1.50000000000000000000e+003) (6, 1.50000000000000000000e+003) (7, 1.50000000000000000000e+003) (8, 7.83493286132812500000e+002) (0, 1.49855102539062500000e+003) (1, -1.04230186462402340000e+002) (2, 9.41576671600341800000e+000) (3, -2.00346126556396480000e+001) (4, 2.37303304672241210000e+000) (5, 1.50000000000000000000e+003) (6, 1.50000000000000000000e+003) (7, 1.50000000000000000000e+003) (8, -6.55241577148437500000e+002) (0, 1.50000000000000000000e+003) (1, 1.93988739013671870000e+002) (2, 1.16102673339843750000e+003) (3, -1.25121350097656250000e+003) (4, -3.68417816162109370000e+001) (5, 1.50000000000000000000e+003) (6, 1.50000000000000000000e+003) (7, 1.50000000000000000000e+003) (8, -9.37198181152343750000e+002) (0, 9.56606140136718750000e+002) (1, -8.94025939941406250000e+002) (2, 7.92561584472656250000e+002) (3, -9.43417968750000000000e+002) (4, 6.15720710754394530000e+001) (5, 1.50000000000000000000e+003) (6, 1.50000000000000000000e+003) (7, 1.50000000000000000000e+003) (8, 3.49895324707031250000e+001) (9, -3.09508979320526120000e-001) (10, 6.32033109664916990000e-001) (11, -1.45073950290679930000e-001) (12, -2.08839178085327150000e-001) (13, 2.23172456026077270000e-001) (14, 4.91362690925598140000e-001) (15, -2.27009095251560210000e-002) (16, 3.67024928331375120000e-001) (17, -8.79240036010742190000e-001) (18, 6.67353451251983640000e-001) (19, 8.84414792060852050000e-001) (9, -1.81768059730529790000e-001) (10, 7.23015904426574710000e-001) (11, 2.95193731784820560000e-001) (12, 1.42935931682586670000e-001) (13, -6.07655107975006100000e-001) (14, -3.91910523176193240000e-001) (15, -2.81453996896743770000e-001) (16, -8.83672237396240230000e-001) (17, 5.40293693542480470000e-001) (18, -3.76035362482070920000e-001) (19, 1.35803461074829100000e+000) 
