FANN_FLO_2.1
num_layers=11
learning_rate=0.700000
connection_rate=1.000000
network_type=1
learning_momentum=0.000000
training_algorithm=2
train_error_function=0
train_stop_function=1
cascade_output_change_fraction=0.010000
quickprop_decay=-0.000100
quickprop_mu=1.750000
rprop_increase_factor=1.200000
rprop_decrease_factor=0.500000
rprop_delta_min=0.000000
rprop_delta_max=50.000000
rprop_delta_zero=0.100000
cascade_output_stagnation_epochs=12
cascade_candidate_change_fraction=0.010000
cascade_candidate_stagnation_epochs=12
cascade_max_out_epochs=150
cascade_min_out_epochs=50
cascade_max_cand_epochs=150
cascade_min_cand_epochs=50
cascade_num_candidate_groups=8
bit_fail_limit=8.99999976158142090000e-001
cascade_candidate_limit=1.00000000000000000000e+003
cascade_weight_multiplier=4.00000005960464480000e-001
cascade_activation_functions_count=1
cascade_activation_functions=5 
cascade_activation_steepnesses_count=1
cascade_activation_steepnesses=1.00000000000000000000e+000 
layer_sizes=9 1 1 1 1 1 1 1 1 1 1 
scale_included=0
neurons (num_inputs, activation_function, activation_steepness)=(0, 0, 0.00000000000000000000e+000) (0, 0, 0.00000000000000000000e+000) (0, 0, 0.00000000000000000000e+000) (0, 0, 0.00000000000000000000e+000) (0, 0, 0.00000000000000000000e+000) (0, 0, 0.00000000000000000000e+000) (0, 0, 0.00000000000000000000e+000) (0, 0, 0.00000000000000000000e+000) (0, 0, 0.00000000000000000000e+000) (9, 5, 1.00000000000000000000e+000) (10, 5, 1.00000000000000000000e+000) (11, 5, 1.00000000000000000000e+000) (12, 5, 1.00000000000000000000e+000) (13, 5, 1.00000000000000000000e+000) (14, 5, 1.00000000000000000000e+000) (15, 5, 1.00000000000000000000e+000) (16, 5, 1.00000000000000000000e+000) (17, 5, 1.00000000000000000000e+000) (18, 0, 5.00000000000000000000e-001) 
connections (connected_to_neuron, weight)=(0, 1.78629088401794430000e+000) (1, 1.78680646419525150000e+000) (2, 1.78586792945861820000e+000) (3, 1.78759205341339110000e+000) (4, 1.78578436374664310000e+000) (5, 1.78518331050872800000e+000) (6, 1.78546571731567380000e+000) (7, 1.78498101234436040000e+000) (8, -1.78590524196624760000e+000) (0, 1.55738031864166260000e+000) (1, 1.55935394763946530000e+000) (2, 1.55632543563842770000e+000) (3, 1.55707263946533200000e+000) (4, 1.55624961853027340000e+000) (5, 1.55559444427490230000e+000) (6, 1.56228852272033690000e+000) (7, 1.55753552913665770000e+000) (8, -1.55684792995452880000e+000) (9, -2.81001019477844240000e+000) (0, 1.52546536922454830000e+000) (1, 1.52852392196655270000e+000) (2, 1.52150559425354000000e+000) (3, 1.52119898796081540000e+000) (4, 1.52677762508392330000e+000) (5, 1.52648115158081050000e+000) (6, 1.54126954078674320000e+000) (7, 1.52408635616302490000e+000) (8, -1.52285110950469970000e+000) (9, -3.31804013252258300000e+000) (10, -2.02436208724975590000e+000) (0, 6.31554126739501950000e-001) (1, 3.03197830915451050000e-001) (2, 7.65295982360839840000e-001) (3, 6.77817106246948240000e-001) (4, 7.13622212409973140000e-001) (5, 6.21515750885009770000e-001) (6, 5.92328011989593510000e-001) (7, 7.35512197017669680000e-001) (8, -5.03037035465240480000e-001) (9, -2.37505987286567690000e-001) (10, 5.65778136253356930000e-001) (11, 3.64289021492004390000e+000) (0, 6.43910109996795650000e-001) (1, -1.29457962512969970000e+000) (2, 1.30208194255828860000e+000) (3, 8.30951452255249020000e-001) (4, 1.07984375953674320000e+000) (5, 6.37260735034942630000e-001) (6, 6.20976150035858150000e-001) (7, 1.15803003311157230000e+000) (8, 2.33637362718582150000e-001) (9, -3.42837184667587280000e-001) (10, 4.10241723060607910000e-001) (11, 2.53306722640991210000e+000) (12, -6.53137969970703130000e+000) (0, 1.65314662456512450000e+000) (1, 9.70740377902984620000e-001) (2, 2.16710686683654790000e+000) (3, 1.76623809337615970000e+000) (4, 2.14915657043457030000e+000) (5, 1.59226548671722410000e+000) (6, 1.72821247577667240000e+000) (7, 2.15738773345947270000e+000) (8, -1.79028224945068360000e+000) (9, -3.46453309059143070000e+000) (10, -1.42812716960906980000e+000) (11, 1.16620743274688720000e+000) (12, -2.29585552215576170000e+000) (13, 4.44721603393554690000e+000) (0, -4.77592289447784420000e-001) (1, -1.03074789047241210000e+000) (2, -3.56579601764678960000e-001) (3, -4.29931670427322390000e-001) (4, -4.25868272781372070000e-001) (5, -4.72806304693222050000e-001) (6, -5.08117139339447020000e-001) (7, -4.01031017303466800000e-001) (8, 7.71652042865753170000e-001) (9, 1.51437151432037350000e+000) (10, 1.08746373653411870000e+000) (11, 1.43214476108551030000e+000) (12, -1.69854831695556640000e+000) (13, -1.16197443008422850000e+000) (14, 3.51282149553298950000e-001) (0, 5.33608257770538330000e-001) (1, 7.44716405868530270000e-001) (2, 5.06037771701812740000e-001) (3, 5.16185820102691650000e-001) (4, 5.32854080200195310000e-001) (5, 5.33837378025054930000e-001) (6, 5.58122813701629640000e-001) (7, 5.22446870803833010000e-001) (8, -6.46802663803100590000e-001) (9, -1.40936493873596190000e+000) (10, -9.31710541248321530000e-001) (11, -9.47093248367309570000e-001) (12, 5.47736465930938720000e-001) (13, 6.25319302082061770000e-001) (14, -3.02888035774230960000e-001) (15, 1.36613750457763670000e+000) (0, 2.74063736200332640000e-001) (1, 2.50226676464080810000e-001) (2, 3.10126900672912600000e-001) (3, 2.51748710870742800000e-001) (4, 3.18137228488922120000e-001) (5, 2.59668350219726560000e-001) (6, 2.68748253583908080000e-001) (7, 3.12448769807815550000e-001) (8, -3.26026856899261470000e-001) (9, -5.72884917259216310000e-001) (10, -2.65663266181945800000e-001) (11, 1.17622122168540950000e-001) (12, -1.48334383964538570000e-001) (13, 5.97286105155944820000e-001) (14, -1.88672944903373720000e-001) (15, -2.17710480093955990000e-001) (16, 5.97816181182861330000e+000) (0, -1.32066786289215090000e+000) (1, 2.14316114783287050000e-001) (2, -1.69028508663177490000e+000) (3, -1.44954431056976320000e+000) (4, -1.50180613994598390000e+000) (5, -1.34468734264373780000e+000) (6, -1.29742205142974850000e+000) (7, -1.55965363979339600000e+000) (8, 4.81060057878494260000e-001) (9, 2.81483221054077150000e+000) (10, -5.36225557327270510000e-001) (11, 1.97760987281799320000e+000) (12, 4.81163835525512700000e+000) (13, 2.84274077415466310000e+000) (14, -6.54533147811889650000e-001) (15, 1.62555754184722900000e+000) (16, 3.08006215095520020000e+000) (17, -4.53381896018981930000e-001) 
