FANN_FLO_2.1
num_layers=3
learning_rate=0.700000
connection_rate=1.000000
network_type=0
learning_momentum=0.000000
training_algorithm=2
train_error_function=1
train_stop_function=0
cascade_output_change_fraction=0.010000
quickprop_decay=-0.000100
quickprop_mu=1.750000
rprop_increase_factor=1.200000
rprop_decrease_factor=0.500000
rprop_delta_min=0.000000
rprop_delta_max=50.000000
rprop_delta_zero=0.100000
cascade_output_stagnation_epochs=12
cascade_candidate_change_fraction=0.010000
cascade_candidate_stagnation_epochs=12
cascade_max_out_epochs=150
cascade_min_out_epochs=50
cascade_max_cand_epochs=150
cascade_min_cand_epochs=50
cascade_num_candidate_groups=2
bit_fail_limit=3.49999994039535520000e-001
cascade_candidate_limit=1.00000000000000000000e+003
cascade_weight_multiplier=4.00000005960464480000e-001
cascade_activation_functions_count=10
cascade_activation_functions=3 5 7 8 10 11 14 15 16 17 
cascade_activation_steepnesses_count=4
cascade_activation_steepnesses=2.50000000000000000000e-001 5.00000000000000000000e-001 7.50000000000000000000e-001 1.00000000000000000000e+000 
layer_sizes=126 33 3 
scale_included=0
neurons (num_inputs, activation_function, activation_steepness)=(0, 0, 0.00000000000000000000e+000) (0, 0, 0.00000000000000000000e+000) (0, 0, 0.00000000000000000000e+000) (0, 0, 0.00000000000000000000e+000) (0, 0, 0.00000000000000000000e+000) (0, 0, 0.00000000000000000000e+000) (0, 0, 0.00000000000000000000e+000) (0, 0, 0.00000000000000000000e+000) (0, 0, 0.00000000000000000000e+000) (0, 0, 0.00000000000000000000e+000) (0, 0, 0.00000000000000000000e+000) (0, 0, 0.00000000000000000000e+000) (0, 0, 0.00000000000000000000e+000) (0, 0, 0.00000000000000000000e+000) (0, 0, 0.00000000000000000000e+000) (0, 0, 0.00000000000000000000e+000) (0, 0, 0.00000000000000000000e+000) (0, 0, 0.00000000000000000000e+000) (0, 0, 0.00000000000000000000e+000) (0, 0, 0.00000000000000000000e+000) (0, 0, 0.00000000000000000000e+000) (0, 0, 0.00000000000000000000e+000) (0, 0, 0.00000000000000000000e+000) (0, 0, 0.00000000000000000000e+000) (0, 0, 0.00000000000000000000e+000) (0, 0, 0.00000000000000000000e+000) (0, 0, 0.00000000000000000000e+000) (0, 0, 0.00000000000000000000e+000) (0, 0, 0.00000000000000000000e+000) (0, 0, 0.00000000000000000000e+000) (0, 0, 0.00000000000000000000e+000) (0, 0, 0.00000000000000000000e+000) (0, 0, 0.00000000000000000000e+000) (0, 0, 0.00000000000000000000e+000) (0, 0, 0.00000000000000000000e+000) (0, 0, 0.00000000000000000000e+000) (0, 0, 0.00000000000000000000e+000) (0, 0, 0.00000000000000000000e+000) (0, 0, 0.00000000000000000000e+000) (0, 0, 0.00000000000000000000e+000) (0, 0, 0.00000000000000000000e+000) (0, 0, 0.00000000000000000000e+000) (0, 0, 0.00000000000000000000e+000) (0, 0, 0.00000000000000000000e+000) (0, 0, 0.00000000000000000000e+000) (0, 0, 0.00000000000000000000e+000) (0, 0, 0.00000000000000000000e+000) (0, 0, 0.00000000000000000000e+000) (0, 0, 0.00000000000000000000e+000) (0, 0, 0.00000000000000000000e+000) (0, 0, 0.00000000000000000000e+000) (0, 0, 0.00000000000000000000e+000) (0, 0, 0.00000000000000000000e+000) (0, 0, 0.00000000000000000000e+000) (0, 0, 0.00000000000000000000e+000) (0, 0, 0.00000000000000000000e+000) (0, 0, 0.00000000000000000000e+000) (0, 0, 0.00000000000000000000e+000) (0, 0, 0.00000000000000000000e+000) (0, 0, 0.00000000000000000000e+000) (0, 0, 0.00000000000000000000e+000) (0, 0, 0.00000000000000000000e+000) (0, 0, 0.00000000000000000000e+000) (0, 0, 0.00000000000000000000e+000) (0, 0, 0.00000000000000000000e+000) (0, 0, 0.00000000000000000000e+000) (0, 0, 0.00000000000000000000e+000) (0, 0, 0.00000000000000000000e+000) (0, 0, 0.00000000000000000000e+000) (0, 0, 0.00000000000000000000e+000) (0, 0, 0.00000000000000000000e+000) (0, 0, 0.00000000000000000000e+000) (0, 0, 0.00000000000000000000e+000) (0, 0, 0.00000000000000000000e+000) (0, 0, 0.00000000000000000000e+000) (0, 0, 0.00000000000000000000e+000) (0, 0, 0.00000000000000000000e+000) (0, 0, 0.00000000000000000000e+000) (0, 0, 0.00000000000000000000e+000) (0, 0, 0.00000000000000000000e+000) (0, 0, 0.00000000000000000000e+000) (0, 0, 0.00000000000000000000e+000) (0, 0, 0.00000000000000000000e+000) (0, 0, 0.00000000000000000000e+000) (0, 0, 0.00000000000000000000e+000) (0, 0, 0.00000000000000000000e+000) (0, 0, 0.00000000000000000000e+000) (0, 0, 0.00000000000000000000e+000) (0, 0, 0.00000000000000000000e+000) (0, 0, 0.00000000000000000000e+000) (0, 0, 0.00000000000000000000e+000) (0, 0, 0.00000000000000000000e+000) (0, 0, 0.00000000000000000000e+000) (0, 0, 0.00000000000000000000e+000) (0, 0, 0.00000000000000000000e+000) (0, 0, 0.00000000000000000000e+000) (0, 0, 0.00000000000000000000e+000) (0, 0, 0.00000000000000000000e+000) (0, 0, 0.00000000000000000000e+000) (0, 0, 0.00000000000000000000e+000) (0, 0, 0.00000000000000000000e+000) (0, 0, 0.00000000000000000000e+000) (0, 0, 0.00000000000000000000e+000) (0, 0, 0.00000000000000000000e+000) (0, 0, 0.00000000000000000000e+000) (0, 0, 0.00000000000000000000e+000) (0, 0, 0.00000000000000000000e+000) (0, 0, 0.00000000000000000000e+000) (0, 0, 0.00000000000000000000e+000) (0, 0, 0.00000000000000000000e+000) (0, 0, 0.00000000000000000000e+000) (0, 0, 0.00000000000000000000e+000) (0, 0, 0.00000000000000000000e+000) (0, 0, 0.00000000000000000000e+000) (0, 0, 0.00000000000000000000e+000) (0, 0, 0.00000000000000000000e+000) (0, 0, 0.00000000000000000000e+000) (0, 0, 0.00000000000000000000e+000) (0, 0, 0.00000000000000000000e+000) (0, 0, 0.00000000000000000000e+000) (0, 0, 0.00000000000000000000e+000) (0, 0, 0.00000000000000000000e+000) (0, 0, 0.00000000000000000000e+000) (0, 0, 0.00000000000000000000e+000) (0, 0, 0.00000000000000000000e+000) (0, 0, 0.00000000000000000000e+000) (126, 6, 5.00000000000000000000e-001) (126, 6, 5.00000000000000000000e-001) (126, 6, 5.00000000000000000000e-001) (126, 6, 5.00000000000000000000e-001) (126, 6, 5.00000000000000000000e-001) (126, 6, 5.00000000000000000000e-001) (126, 6, 5.00000000000000000000e-001) (126, 6, 5.00000000000000000000e-001) (126, 6, 5.00000000000000000000e-001) (126, 6, 5.00000000000000000000e-001) (126, 6, 5.00000000000000000000e-001) (126, 6, 5.00000000000000000000e-001) (126, 6, 5.00000000000000000000e-001) (126, 6, 5.00000000000000000000e-001) (126, 6, 5.00000000000000000000e-001) (126, 6, 5.00000000000000000000e-001) (126, 6, 5.00000000000000000000e-001) (126, 6, 5.00000000000000000000e-001) (126, 6, 5.00000000000000000000e-001) (126, 6, 5.00000000000000000000e-001) (126, 6, 5.00000000000000000000e-001) (126, 6, 5.00000000000000000000e-001) (126, 6, 5.00000000000000000000e-001) (126, 6, 5.00000000000000000000e-001) (126, 6, 5.00000000000000000000e-001) (126, 6, 5.00000000000000000000e-001) (126, 6, 5.00000000000000000000e-001) (126, 6, 5.00000000000000000000e-001) (126, 6, 5.00000000000000000000e-001) (126, 6, 5.00000000000000000000e-001) (126, 6, 5.00000000000000000000e-001) (126, 6, 5.00000000000000000000e-001) (0, 6, 0.00000000000000000000e+000) (33, 4, 5.00000000000000000000e-001) (33, 4, 5.00000000000000000000e-001) (0, 4, 0.00000000000000000000e+000) 
connections (connected_to_neuron, weight)=(0, -6.93591785430908200000e+000) (1, 1.50000000000000000000e+003) (2, -3.53242605924606320000e-001) (3, -1.84160038828849790000e-001) (4, 1.09253197908401490000e-001) (5, 2.45132263183593750000e+002) (6, -2.97716353088617320000e-002) (7, 1.50000000000000000000e+003) (8, -4.16048616170883180000e-001) (9, -9.10133004188537600000e-001) (10, -2.63451844453811650000e-001) (11, 1.57428024291992190000e+002) (12, 8.42253267765045170000e-001) (13, -2.21880942583084110000e-001) (14, 7.46477203369140620000e+001) (15, -1.39986073970794680000e+000) (16, 7.45467224121093750000e+001) (17, 1.21181346476078030000e-001) (18, -1.47921695709228520000e+001) (19, 2.59330362081527710000e-001) (20, -7.71510899066925050000e-001) (21, 3.60477328300476070000e-001) (22, -1.74886245727539060000e+002) (23, -1.74904571533203120000e+002) (24, 1.50000000000000000000e+003) (25, 1.50000000000000000000e+003) (26, 1.50000000000000000000e+003) (27, 1.50000000000000000000e+003) (28, -5.78014183044433590000e+001) (29, 1.50000000000000000000e+003) (30, 1.50000000000000000000e+003) (31, -1.79571666717529300000e+001) (32, 1.50000000000000000000e+003) (33, -5.51630735397338870000e-001) (34, 1.50000000000000000000e+003) (35, 2.19593971967697140000e-001) (36, -9.44192962646484370000e+001) (37, 1.50000000000000000000e+003) (38, -1.58804833889007570000e+000) (39, 1.36903584003448490000e-001) (40, -1.56460970640182500000e-001) (41, -1.18056507110595700000e+001) (42, 1.50000000000000000000e+003) (43, 2.33773887157440190000e-001) (44, -2.69170135259628300000e-001) (45, 1.50000000000000000000e+003) (46, 7.40948333740234380000e+001) (47, -8.08820784091949460000e-001) (48, -1.90359309315681460000e-001) (49, 2.77777252197265620000e+001) (50, -6.57145996093750000000e+001) (51, 6.95084304809570310000e+001) (52, -2.45946884155273440000e+000) (53, -6.02993726730346680000e-001) (54, -3.29315215349197390000e-001) (55, 1.26664042472839360000e-001) (56, 1.50000000000000000000e+003) (57, -1.34525823593139650000e+001) (58, 1.50000000000000000000e+003) (59, 1.28391906738281250000e+002) (60, -8.27757835388183590000e-001) (61, 1.57929658889770510000e+000) (62, 2.91203308105468750000e+001) (63, -7.58531808853149410000e-001) (64, -6.86933755874633790000e-001) (65, -3.98458421230316160000e-001) (66, 7.65324652194976810000e-001) (67, -5.02484261989593510000e-001) (68, 3.39448571205139160000e+000) (69, 1.50000000000000000000e+003) (70, 1.50000000000000000000e+003) (71, 7.46908569335937500000e+001) (72, -2.31740360260009770000e+001) (73, 2.89731740951538090000e-001) (74, 2.76796360015869140000e+001) (75, -2.87338328361511230000e+000) (76, 1.50000000000000000000e+003) (77, 5.77678799629211430000e-001) (78, 1.50000000000000000000e+003) (79, 1.50000000000000000000e+003) (80, 7.47776947021484380000e+001) (81, -2.30592727661132810000e+001) (82, 2.00791284441947940000e-001) (83, 2.77369728088378910000e+001) (84, -5.50581336021423340000e-001) (85, 1.50000000000000000000e+003) (86, -5.20829796791076660000e-001) (87, 1.50000000000000000000e+003) (88, -2.58882560729980470000e+001) (89, -2.28398628234863280000e+001) (90, -4.53689008951187130000e-001) (91, 1.50000000000000000000e+003) (92, 1.50000000000000000000e+003) (93, -4.77184802293777470000e-001) (94, -1.61231482028961180000e+000) (95, 1.50000000000000000000e+003) (96, 7.76162028312683110000e-001) (97, 7.73196716308593750000e+001) (98, 1.50000000000000000000e+003) (99, 1.50000000000000000000e+003) (100, -3.37309980392456050000e+000) (101, 1.50000000000000000000e+003) (102, 1.50000000000000000000e+003) (103, -8.90890026092529300000e+000) (104, -4.94391975402832030000e+001) (105, -2.57184371948242190000e+001) (106, 3.70402544736862180000e-001) (107, 1.50000000000000000000e+003) (108, -2.59074401855468750000e+001) (109, 1.27691940307617190000e+002) (110, 1.01976776123046870000e+001) (111, -2.57363395690917970000e+001) (112, 2.74507080078125000000e+002) (113, -9.17221069335937500000e+000) (114, 2.76914367675781250000e+001) (115, -1.85964524745941160000e+000) (116, 2.91419446468353270000e-001) (117, -1.86959281563758850000e-001) (118, -1.22981560230255130000e+000) (119, 1.90786153078079220000e-001) (120, 2.81765533447265620000e+002) (121, 2.24194824695587160000e-001) (122, 1.35673713684082030000e+000) (123, -7.02720336914062500000e+001) (124, 1.06862477958202360000e-001) (125, -5.90629577636718750000e-001) (0, 1.21950484812259670000e-001) (1, 2.44169921875000000000e+001) (2, 2.72739738225936890000e-001) (3, -2.23248973488807680000e-001) (4, 1.60937979817390440000e-002) (5, 1.50000000000000000000e+003) (6, 2.90496945381164550000e-001) (7, 2.39212493896484380000e+001) (8, -5.70983409881591800000e-001) (9, 1.88076063990592960000e-001) (10, 2.94016897678375240000e-001) (11, -4.25557804107666020000e+000) (12, 5.09812176227569580000e-001) (13, 4.13317799568176270000e-001) (14, 1.50000000000000000000e+003) (15, 7.31535032391548160000e-002) (16, 1.50000000000000000000e+003) (17, 1.10572710633277890000e-001) (18, -6.81097221374511720000e+000) (19, -3.31293106079101560000e+001) (20, 2.49147459864616390000e-001) (21, -1.60637274384498600000e-001) (22, 1.50000000000000000000e+003) (23, 1.50000000000000000000e+003) (24, 2.34744644165039060000e+001) (25, 2.43052978515625000000e+001) (26, -7.62557067871093750000e+001) (27, -2.40194549560546880000e+001) (28, 1.89719426631927490000e+000) (29, 7.49206390380859380000e+001) (30, 2.40726165771484380000e+001) (31, 1.99724792480468750000e+002) (32, 1.50000000000000000000e+003) (33, 1.88117101788520810000e-001) (34, 1.50000000000000000000e+003) (35, -2.38268747925758360000e-001) (36, 2.59433627128601070000e-001) (37, 1.50000000000000000000e+003) (38, 5.15630245208740230000e-001) (39, -1.10294945538043980000e-001) (40, 7.31298565864562990000e-001) (41, 1.99121153354644780000e+000) (42, 2.39388198852539060000e+001) (43, -1.59858763217926030000e-002) (44, 1.77953213453292850000e-001) (45, 2.42745361328125000000e+001) (46, 1.50000000000000000000e+003) (47, 6.15206241607666020000e-001) (48, 4.21441346406936650000e-001) (49, 1.50000000000000000000e+003) (50, 5.79543858766555790000e-002) (51, 2.33555740356445310000e+002) (52, -3.51757287979125980000e-001) (53, 5.12480616569519040000e-001) (54, 3.61904203891754150000e-001) (55, -1.63926959037780760000e-001) (56, 1.50000000000000000000e+003) (57, 1.02770376205444340000e+000) (58, 1.50000000000000000000e+003) (59, 1.50000000000000000000e+003) (60, 1.01034402847290040000e+000) (61, -2.10422173142433170000e-001) (62, -4.25827545166015620000e+002) (63, 3.94367992877960210000e-001) (64, 2.00712132453918460000e+000) (65, -1.02518284320831300000e+000) (66, -5.97821846604347230000e-002) (67, 3.00341963768005370000e-001) (68, -1.23432092368602750000e-001) (69, 2.41987762451171880000e+001) (70, -2.40264511108398440000e+001) (71, 1.50000000000000000000e+003) (72, 1.50000000000000000000e+003) (73, 3.10598015785217290000e-002) (74, 1.50000000000000000000e+003) (75, 4.71899695694446560000e-002) (76, -2.38573856353759770000e+001) (77, 2.87605617195367810000e-002) (78, 2.43562927246093750000e+001) (79, -2.39711761474609380000e+001) (80, 1.50000000000000000000e+003) (81, 1.50000000000000000000e+003) (82, 1.01902760565280910000e-001) (83, 1.50000000000000000000e+003) (84, -5.13639926910400390000e-001) (85, -2.50998477935791020000e+001) (86, 2.02714115381240840000e-001) (87, 1.50000000000000000000e+003) (88, 1.50000000000000000000e+003) (89, 1.50000000000000000000e+003) (90, 2.95599132776260380000e-001) (91, -2.37886543273925780000e+001) (92, -2.39799194335937500000e+001) (93, -2.03293040394783020000e-001) (94, 2.31386348605155940000e-001) (95, 1.50000000000000000000e+003) (96, 8.04638043045997620000e-002) (97, 1.50000000000000000000e+003) (98, 2.42062759399414060000e+001) (99, -2.39234848022460940000e+001) (100, 2.59092390537261960000e-001) (101, 1.50000000000000000000e+003) (102, 1.50000000000000000000e+003) (103, 2.31219458580017090000e+000) (104, 2.38881993293762210000e+000) (105, 1.50000000000000000000e+003) (106, 1.52533799409866330000e-001) (107, -6.46527404785156250000e+001) (108, 1.50000000000000000000e+003) (109, 1.50000000000000000000e+003) (110, -5.57298175990581510000e-002) (111, 1.50000000000000000000e+003) (112, 1.50000000000000000000e+003) (113, -2.50984215736389160000e+000) (114, 1.50000000000000000000e+003) (115, -1.81740924715995790000e-001) (116, -1.34532719850540160000e-001) (117, 3.24509680271148680000e-001) (118, -2.22106337547302250000e+000) (119, -6.03918433189392090000e-002) (120, 1.07018699645996090000e+002) (121, -4.44306395947933200000e-002) (122, -1.53363108634948730000e-001) (123, 1.50000000000000000000e+003) (124, -1.80348038673400880000e-001) (125, 2.12858170270919800000e-001) (0, -4.69073772430419920000e+000) (1, 2.53947372436523440000e+001) (2, 1.34104520082473750000e-001) (3, 5.15107274055480960000e-001) (4, -2.07494840025901790000e-001) (5, 1.50000000000000000000e+003) (6, 1.51175722479820250000e-001) (7, 2.53251113891601560000e+001) (8, -2.04653358459472660000e+000) (9, 2.49694526195526120000e-001) (10, 9.67545062303543090000e-002) (11, -1.79795634746551510000e+000) (12, 1.82240754365921020000e-001) (13, 2.69774675369262700000e-001) (14, 1.50000000000000000000e+003) (15, 2.41810500621795650000e-001) (16, 1.50000000000000000000e+003) (17, 3.86988610029220580000e-001) (18, -3.72849494218826290000e-001) (19, -7.97550916671752930000e+000) (20, -1.05838406085968020000e+000) (21, 5.16411781311035160000e-001) (22, 1.50000000000000000000e+003) (23, 1.50000000000000000000e+003) (24, 2.50163955688476560000e+001) (25, 2.73925781250000000000e+001) (26, -7.61473617553710940000e+001) (27, -2.67953109741210940000e+001) (28, 5.77477753162384030000e-001) (29, 7.50468597412109370000e+001) (30, 2.70813293457031250000e+001) (31, 8.32975997924804690000e+001) (32, 1.50000000000000000000e+003) (33, -1.49445636197924610000e-002) (34, 1.50000000000000000000e+003) (35, 4.79295521974563600000e-001) (36, 3.21544909477233890000e+000) (37, 1.50000000000000000000e+003) (38, 1.77915439009666440000e-001) (39, -1.17400801181793210000e+000) (40, -1.57813996076583860000e-001) (41, 5.45258474349975590000e+000) (42, 2.62837982177734370000e+001) (43, 5.92936336994171140000e-001) (44, 8.77799570560455320000e-001) (45, -4.74419784545898440000e+000) (46, 1.50000000000000000000e+003) (47, 4.33380067348480220000e-001) (48, 3.49157989025115970000e-001) (49, 1.50000000000000000000e+003) (50, 1.16552874445915220000e-001) (51, 2.43637588500976560000e+002) (52, 4.98340964317321780000e-001) (53, 3.68589639663696290000e-001) (54, 5.70683121681213380000e-001) (55, -2.18331739306449890000e-002) (56, 1.50000000000000000000e+003) (57, -1.97185531258583070000e-001) (58, 1.50000000000000000000e+003) (59, 1.50000000000000000000e+003) (60, 3.60342264175415040000e-001) (61, -1.65913924574851990000e-001) (62, -7.39120662212371830000e-001) (63, 6.53122877702116970000e-003) (64, 3.09218794107437130000e-001) (65, -1.12288117408752440000e+000) (66, 2.76165306568145750000e-001) (67, 4.69051115214824680000e-002) (68, 1.91659882664680480000e-001) (69, 2.43150558471679690000e+001) (70, -2.67395324707031250000e+001) (71, 1.50000000000000000000e+003) (72, 1.50000000000000000000e+003) (73, 2.44234308600425720000e-001) (74, 1.50000000000000000000e+003) (75, 4.74543049931526180000e-002) (76, -2.64731674194335940000e+001) (77, -7.98586606979370120000e-002) (78, 2.44295578002929690000e+001) (79, -2.67525787353515620000e+001) (80, 1.50000000000000000000e+003) (81, 1.50000000000000000000e+003) (82, 3.49635988473892210000e-001) (83, 1.50000000000000000000e+003) (84, -1.71623483300209050000e-001) (85, -2.41288986206054690000e+001) (86, 4.40342500805854800000e-002) (87, 1.50000000000000000000e+003) (88, 1.50000000000000000000e+003) (89, 1.50000000000000000000e+003) (90, 1.04489475488662720000e-001) (91, -2.63706703186035160000e+001) (92, -2.67407302856445310000e+001) (93, 5.92991173267364500000e-001) (94, 3.26779031753540040000e+000) (95, 1.50000000000000000000e+003) (96, 8.17524343729019170000e-002) (97, 1.50000000000000000000e+003) (98, 2.42461624145507810000e+001) (99, -2.68483734130859370000e+001) (100, 1.29414990544319150000e-001) (101, 1.50000000000000000000e+003) (102, 1.50000000000000000000e+003) (103, 1.60536766052246090000e+001) (104, 1.66271877288818360000e+000) (105, 1.50000000000000000000e+003) (106, -1.07805550098419190000e-001) (107, -4.16331634521484380000e+001) (108, 1.50000000000000000000e+003) (109, 1.50000000000000000000e+003) (110, -9.06273603439331050000e-001) (111, 1.50000000000000000000e+003) (112, 1.50000000000000000000e+003) (113, -4.31575012207031250000e+000) (114, 1.50000000000000000000e+003) (115, -2.73490726947784420000e-001) (116, 4.56873506307601930000e-001) (117, -1.57804697751998900000e-001) (118, 6.79891207255423070000e-004) (119, -1.32018953561782840000e-001) (120, 1.20229820251464840000e+002) (121, 4.31685686111450200000e-001) (122, -2.71134400367736820000e+000) (123, 1.50000000000000000000e+003) (124, -3.55266451835632320000e-001) (125, 2.36545894294977190000e-002) (0, 1.17130637168884280000e+000) (1, 1.50000000000000000000e+003) (2, 6.06388986110687260000e-001) (3, 5.21033167839050290000e-001) (4, 1.62832677364349370000e-001) (5, 2.76840942382812500000e+002) (6, -6.78336799144744870000e-001) (7, 1.50000000000000000000e+003) (8, 7.32471883296966550000e-001) (9, 3.91667604446411130000e-001) (10, 4.18963193893432620000e-001) (11, 1.58588302612304690000e+002) (12, -8.03829014301300050000e-001) (13, 3.57297539710998540000e-001) (14, 7.74633865356445310000e+001) (15, 2.46489572525024410000e+000) (16, 7.73621215820312500000e+001) (17, 3.26157152652740480000e-001) (18, 3.17220628261566160000e-001) (19, 1.01697647094726560000e+002) (20, -2.37246856093406680000e-001) (21, 3.74821096658706670000e-001) (22, -1.78496337890625000000e+002) (23, -1.78419067382812500000e+002) (24, 1.50000000000000000000e+003) (25, 1.50000000000000000000e+003) (26, 1.50000000000000000000e+003) (27, 1.50000000000000000000e+003) (28, -2.15878143310546880000e+001) (29, 1.50000000000000000000e+003) (30, 1.50000000000000000000e+003) (31, -3.79597930908203130000e+001) (32, 1.50000000000000000000e+003) (33, 4.35534477233886720000e-001) (34, 1.50000000000000000000e+003) (35, 5.03734230995178220000e-001) (36, -1.00462627410888670000e+000) (37, 1.50000000000000000000e+003) (38, -4.39917147159576420000e-001) (39, 6.00413656234741210000e+000) (40, -5.96010625362396240000e-001) (41, -4.86621522903442380000e+000) (42, 1.50000000000000000000e+003) (43, 2.76602774858474730000e-001) (44, 2.49107047915458680000e-001) (45, 1.50000000000000000000e+003) (46, 7.67085494995117190000e+001) (47, 4.76783305406570430000e-001) (48, -2.53707766532897950000e-001) (49, 2.25608673095703130000e+001) (50, -4.60292875766754150000e-001) (51, 1.84831207275390620000e+002) (52, 5.44663488864898680000e-001) (53, 2.53887563943862920000e-001) (54, 5.87260723114013670000e-001) (55, -6.74342751502990720000e-001) (56, 1.50000000000000000000e+003) (57, -2.54957020282745360000e-001) (58, 1.50000000000000000000e+003) (59, 1.24067031860351560000e+002) (60, -3.50153148174285890000e-001) (61, 1.29590618610382080000e+000) (62, 9.39865827560424800000e-001) (63, -3.16237479448318480000e-001) (64, -1.02051293849945070000e+000) (65, 6.85592591762542720000e-001) (66, 8.16335201263427730000e-001) (67, -3.19693982601165770000e-001) (68, 5.70686399936676030000e-001) (69, 1.50000000000000000000e+003) (70, 1.50000000000000000000e+003) (71, 7.78631744384765630000e+001) (72, -2.45291709899902340000e+001) (73, -2.57553249597549440000e-001) (74, 2.33408432006835940000e+001) (75, -2.55716349929571150000e-002) (76, 1.50000000000000000000e+003) (77, 4.01214480400085450000e-001) (78, 1.50000000000000000000e+003) (79, 1.50000000000000000000e+003) (80, 7.80236053466796880000e+001) (81, -2.46013259887695310000e+001) (82, -3.51339280605316160000e-001) (83, 2.29399585723876950000e+001) (84, -6.59534186124801640000e-002) (85, 1.50000000000000000000e+003) (86, 4.46583151817321780000e-001) (87, 1.50000000000000000000e+003) (88, -2.33998260498046880000e+001) (89, -2.31852493286132810000e+001) (90, 4.96396005153656010000e-001) (91, 1.50000000000000000000e+003) (92, 1.50000000000000000000e+003) (93, 5.22467494010925290000e-001) (94, -9.28122901916503910000e+000) (95, 1.50000000000000000000e+003) (96, 9.54804793000221250000e-002) (97, 7.37667846679687500000e+001) (98, 1.50000000000000000000e+003) (99, 1.50000000000000000000e+003) (100, -5.02143502235412600000e-001) (101, 1.50000000000000000000e+003) (102, 1.50000000000000000000e+003) (103, -7.11802902221679690000e+001) (104, -2.40902900695800780000e+001) (105, -2.32918357849121090000e+001) (106, 1.24611628055572510000e+000) (107, 1.50000000000000000000e+003) (108, -2.34587135314941410000e+001) (109, 1.22600730895996090000e+002) (110, 7.21826255321502690000e-001) (111, -2.34403781890869140000e+001) (112, 2.77408660888671880000e+002) (113, 7.93667697906494140000e+000) (114, 2.24638137817382810000e+001) (115, 1.81535005569458010000e-001) (116, 5.55051088333129880000e-001) (117, -1.71165287494659420000e-001) (118, 2.84546822309494020000e-001) (119, 4.98248547315597530000e-001) (120, 5.14169731140136720000e+001) (121, 1.75113640725612640000e-002) (122, 2.87712612152099610000e+001) (123, -1.19883056640625000000e+002) (124, -1.79148420691490170000e-001) (125, 4.84052598476409910000e-001) (0, -3.11811752617359160000e-002) (1, 2.55132598876953130000e+001) (2, -5.56882429122924800000e+000) (3, -1.79950160980224610000e+001) (4, -6.19445610046386720000e+000) (5, 1.50000000000000000000e+003) (6, 1.70577362179756160000e-001) (7, 2.53649749755859370000e+001) (8, -9.62678833007812500000e+001) (9, 1.14635847508907320000e-001) (10, -3.91633892059326170000e+000) (11, -1.00036869049072270000e+001) (12, -1.15350387990474700000e-001) (13, 2.69223868846893310000e-001) (14, 1.50000000000000000000e+003) (15, 9.16825160384178160000e-002) (16, 1.50000000000000000000e+003) (17, 1.11991491317749020000e+001) (18, 1.53216350078582760000e+000) (19, -3.24488906860351560000e+001) (20, -1.57239511609077450000e-001) (21, -3.06188411712646480000e+001) (22, 1.50000000000000000000e+003) (23, 1.50000000000000000000e+003) (24, 2.51446304321289060000e+001) (25, 2.44390411376953130000e+001) (26, -7.61158447265625000000e+001) (27, -2.38846282958984380000e+001) (28, 1.56101763248443600000e-001) (29, 7.63365554809570310000e+001) (30, 2.46247406005859380000e+001) (31, 2.49283767700195310000e+002) (32, 1.50000000000000000000e+003) (33, -6.19334876537323000000e-001) (34, 1.50000000000000000000e+003) (35, -5.09011154174804690000e+001) (36, 4.52685070037841800000e+000) (37, 1.50000000000000000000e+003) (38, -4.40275859832763670000e+000) (39, -9.98985320329666140000e-002) (40, -1.04884356260299680000e-001) (41, 3.50718140602111820000e-001) (42, 2.39502410888671880000e+001) (43, 6.25404536724090580000e-001) (44, 6.97312116622924800000e-001) (45, -4.71336746215820310000e+000) (46, 1.50000000000000000000e+003) (47, 1.67907953262329100000e-001) (48, 3.72053354978561400000e-001) (49, 1.50000000000000000000e+003) (50, 2.77339005470275880000e+000) (51, 1.40407348632812500000e+002) (52, -3.13526172637939450000e+001) (53, 1.44949600100517270000e-001) (54, 7.73947685956954960000e-002) (55, -2.23085686564445500000e-001) (56, 1.50000000000000000000e+003) (57, 3.43625879287719730000e+000) (58, 1.50000000000000000000e+003) (59, 1.50000000000000000000e+003) (60, -1.87380447983741760000e-001) (61, -2.34942406415939330000e-001) (62, -1.62793060302734380000e+002) (63, -2.35099438577890400000e-002) (64, 1.38853773474693300000e-001) (65, -2.83927261829376220000e-001) (66, 2.43772834539413450000e-001) (67, -1.52474805712699890000e-001) (68, 1.17638893425464630000e-001) (69, 2.41983337402343750000e+001) (70, -2.38434143066406250000e+001) (71, 1.50000000000000000000e+003) (72, 1.50000000000000000000e+003) (73, 5.92531383037567140000e-001) (74, 1.50000000000000000000e+003) (75, -2.01992169022560120000e-001) (76, -2.37409706115722660000e+001) (77, 3.24236273765563960000e-001) (78, 2.44584579467773440000e+001) (79, -2.38164062500000000000e+001) (80, 1.50000000000000000000e+003) (81, 1.50000000000000000000e+003) (82, 5.56977808475494380000e-001) (83, 1.50000000000000000000e+003) (84, -6.75036370754241940000e-001) (85, -2.48874225616455080000e+001) (86, -1.48444309234619140000e+001) (87, 1.50000000000000000000e+003) (88, 1.50000000000000000000e+003) (89, 1.50000000000000000000e+003) (90, -8.83169631958007810000e+001) (91, -2.37700099945068360000e+001) (92, -2.39381866455078130000e+001) (93, 4.01805490255355830000e-001) (94, 2.57013618946075440000e-001) (95, 1.50000000000000000000e+003) (96, 1.17334410548210140000e-001) (97, 1.50000000000000000000e+003) (98, 2.41425933837890630000e+001) (99, -2.39559326171875000000e+001) (100, 1.93136766552925110000e-001) (101, 1.50000000000000000000e+003) (102, 1.50000000000000000000e+003) (103, 4.17023620605468750000e+001) (104, 3.08736534118652340000e+001) (105, 1.50000000000000000000e+003) (106, 2.76288539171218870000e-002) (107, -4.16726760864257810000e+001) (108, 1.50000000000000000000e+003) (109, 1.50000000000000000000e+003) (110, -2.68323020935058590000e+001) (111, 1.50000000000000000000e+003) (112, 1.50000000000000000000e+003) (113, -7.96876311302185060000e-001) (114, 1.50000000000000000000e+003) (115, -3.70725125074386600000e-001) (116, 6.21203541755676270000e-001) (117, -4.51369494199752810000e-001) (118, -7.24151253700256350000e-001) (119, -6.78708851337432860000e-001) (120, 2.13027008056640620000e+002) (121, 3.29104810953140260000e-001) (122, -2.92769614607095720000e-002) (123, 1.50000000000000000000e+003) (124, -1.35300493240356450000e+001) (125, -1.48507728576660160000e+001) (0, 1.87502279877662660000e-001) (1, 2.57129211425781250000e+001) (2, -2.81524747610092160000e-001) (3, -7.22717821598052980000e-001) (4, -7.27093791961669920000e+000) (5, 1.50000000000000000000e+003) (6, -2.21027433872222900000e-001) (7, 2.53540420532226560000e+001) (8, -6.72852611541748050000e+000) (9, -4.02446351945400240000e-002) (10, -2.70820230245590210000e-001) (11, -4.10004615783691410000e+000) (12, -5.39504997432231900000e-002) (13, -2.47634306550025940000e-001) (14, 1.50000000000000000000e+003) (15, 5.13648875057697300000e-002) (16, 1.50000000000000000000e+003) (17, 6.11557245254516600000e+000) (18, -2.52200812101364140000e-001) (19, 2.21471652984619140000e+001) (20, -2.78353691101074220000e-001) (21, -1.11722469329833980000e+000) (22, 1.50000000000000000000e+003) (23, 1.50000000000000000000e+003) (24, 2.49917907714843750000e+001) (25, 2.44354095458984380000e+001) (26, -7.61209716796875000000e+001) (27, -2.38292541503906250000e+001) (28, 2.47006844729185100000e-002) (29, 7.49588623046875000000e+001) (30, 2.43397521972656250000e+001) (31, 1.55091644287109370000e+002) (32, 1.50000000000000000000e+003) (33, 3.34611862897872920000e-001) (34, 1.50000000000000000000e+003) (35, -1.00402307510375980000e+000) (36, 2.36568182706832890000e-001) (37, 1.50000000000000000000e+003) (38, -3.53543043136596680000e-001) (39, -2.22010001540184020000e-001) (40, -6.82973384857177730000e-001) (41, -2.15981192886829380000e-002) (42, 2.39878005981445310000e+001) (43, 2.20102310180664060000e-001) (44, 3.73842030763626100000e-001) (45, -4.74300765991210940000e+000) (46, 1.50000000000000000000e+003) (47, -3.55772711336612700000e-002) (48, 8.13837125897407530000e-002) (49, 1.50000000000000000000e+003) (50, 1.40127487182617190000e+001) (51, 2.09634536743164060000e+002) (52, -8.17473697662353520000e+000) (53, -3.27638201415538790000e-002) (54, 3.28653305768966670000e-001) (55, -1.38097004964947700000e-002) (56, 1.50000000000000000000e+003) (57, -6.74525022506713870000e-001) (58, 1.50000000000000000000e+003) (59, 1.50000000000000000000e+003) (60, 2.93559264391660690000e-002) (61, -4.99481618404388430000e-001) (62, -3.70282226562500000000e+002) (63, -1.00209742784500120000e-001) (64, -1.44357502460479740000e-001) (65, -1.00997328758239750000e+000) (66, 5.34115284681320190000e-002) (67, 1.39389233663678170000e-002) (68, 4.98848520219326020000e-002) (69, 2.43234405517578120000e+001) (70, -2.39722900390625000000e+001) (71, 1.50000000000000000000e+003) (72, 1.50000000000000000000e+003) (73, 2.97343254089355470000e-001) (74, 1.50000000000000000000e+003) (75, -2.32302531599998470000e-001) (76, -2.38244400024414060000e+001) (77, 8.53036642074584960000e-002) (78, 2.43527450561523440000e+001) (79, -2.38218078613281250000e+001) (80, 1.50000000000000000000e+003) (81, 1.50000000000000000000e+003) (82, 1.33542746305465700000e-001) (83, 1.50000000000000000000e+003) (84, -3.58397126197814940000e-001) (85, -2.50068511962890630000e+001) (86, -3.59095811843872070000e-001) (87, 1.50000000000000000000e+003) (88, 1.50000000000000000000e+003) (89, 1.50000000000000000000e+003) (90, -2.79104924201965330000e+000) (91, -2.38259792327880860000e+001) (92, -2.38645935058593750000e+001) (93, 2.98938423395156860000e-001) (94, -8.52649286389350890000e-002) (95, 1.50000000000000000000e+003) (96, -3.85874807834625240000e-001) (97, 1.50000000000000000000e+003) (98, 2.41701507568359380000e+001) (99, -2.38903579711914060000e+001) (100, -1.82937771081924440000e-001) (101, 1.50000000000000000000e+003) (102, 1.50000000000000000000e+003) (103, 9.90122675895690920000e-001) (104, 1.44063186645507810000e+000) (105, 1.50000000000000000000e+003) (106, 2.00631283223629000000e-002) (107, -4.17777709960937500000e+001) (108, 1.50000000000000000000e+003) (109, 1.50000000000000000000e+003) (110, -6.48185195922851560000e+001) (111, 1.50000000000000000000e+003) (112, 1.50000000000000000000e+003) (113, -3.20154935121536250000e-001) (114, 1.50000000000000000000e+003) (115, -7.84232616424560550000e-001) (116, 2.81491994857788090000e-001) (117, -7.37636446952819820000e-001) (118, -2.72520399093627930000e+000) (119, 2.00687170028686520000e-001) (120, 1.43848541259765620000e+002) (121, 1.99640095233917240000e-001) (122, -4.24391889572143550000e+000) (123, 1.50000000000000000000e+003) (124, -1.93620052337646480000e+001) (125, -4.34761106967926030000e-001) (0, -2.21226021647453310000e-001) (1, 6.00085205078125000000e+002) (2, -5.65325558185577390000e-001) (3, -1.53924331068992610000e-001) (4, 1.21634230017662050000e-001) (5, 1.48444775390625000000e+003) (6, 3.83295165374875070000e-003) (7, 7.00395202636718750000e+002) (8, 1.22532710433006290000e-001) (9, 4.62038815021514890000e-002) (10, -2.40781903266906740000e-001) (11, -6.86707735061645510000e+000) (12, 4.31043617427349090000e-002) (13, 1.41472905874252320000e-001) (14, 1.50000000000000000000e+003) (15, 2.79138505458831790000e-001) (16, 1.50000000000000000000e+003) (17, 3.49248528480529790000e-001) (18, 1.64076387882232670000e+000) (19, 4.01017852783203120000e+002) (20, -2.23219841718673710000e-001) (21, -4.93369176983833310000e-002) (22, 9.67623657226562500000e+002) (23, 1.04647656250000000000e+003) (24, 1.12407666015625000000e+003) (25, 6.02564025878906250000e+002) (26, 1.12387573242187500000e+003) (27, 1.07323828125000000000e+003) (28, -4.11693453788757320000e-001) (29, 1.07628149414062500000e+003) (30, 6.03308410644531250000e+002) (31, 7.24513977050781250000e+002) (32, 1.50000000000000000000e+003) (33, -5.37848062813282010000e-002) (34, 1.50000000000000000000e+003) (35, -1.84193447232246400000e-001) (36, -4.94628715515136720000e+001) (37, 1.50000000000000000000e+003) (38, -2.69780069589614870000e-001) (39, 7.44882747530937190000e-002) (40, 2.01490640640258790000e+000) (41, 2.59549081325531010000e-001) (42, 6.01495422363281250000e+002) (43, 3.18165034055709840000e-001) (44, 6.02499723434448240000e-001) (45, 6.96648986816406250000e+002) (46, 1.50000000000000000000e+003) (47, 1.72191202640533450000e-001) (48, 3.99495869874954220000e-001) (49, 1.42924658203125000000e+003) (50, -3.81572842597961430000e-001) (51, 2.89432006835937500000e+002) (52, -6.35558459907770160000e-003) (53, 2.79493391513824460000e-001) (54, -3.65645624697208400000e-002) (55, -6.00502751767635350000e-002) (56, 1.50000000000000000000e+003) (57, 1.63442265987396240000e+000) (58, 1.50000000000000000000e+003) (59, 1.40000000000000000000e+003) (60, 2.06955522298812870000e-001) (61, 2.85966038703918460000e+000) (62, -4.29336965084075930000e-001) (63, -1.05462055653333660000e-002) (64, 1.63237884640693660000e-001) (65, -1.21594917774200440000e+000) (66, 3.04883480072021480000e-001) (67, 1.05408564209938050000e-001) (68, 1.79010942578315730000e-001) (69, 1.22423132324218750000e+003) (70, 1.07317492675781250000e+003) (71, 1.50000000000000000000e+003) (72, 1.50000000000000000000e+003) (73, 4.30256426334381100000e-001) (74, 1.50000000000000000000e+003) (75, -1.56841903924942020000e-001) (76, 4.73585937500000000000e+002) (77, 2.01955944299697880000e-001) (78, 1.22432763671875000000e+003) (79, 1.07323254394531250000e+003) (80, 1.50000000000000000000e+003) (81, 1.50000000000000000000e+003) (82, 2.81361192464828490000e-001) (83, 1.50000000000000000000e+003) (84, 8.06169304996728900000e-003) (85, 4.75939208984375000000e+002) (86, -2.30502068996429440000e-001) (87, 1.50000000000000000000e+003) (88, 1.50000000000000000000e+003) (89, 1.50000000000000000000e+003) (90, -1.06940701603889470000e-001) (91, 4.73502746582031250000e+002) (92, 1.07321386718750000000e+003) (93, 5.40769517421722410000e-001) (94, 6.16891801357269290000e-001) (95, 1.50000000000000000000e+003) (96, 7.65269622206687930000e-002) (97, 1.50000000000000000000e+003) (98, 1.22430651855468750000e+003) (99, 1.07320312500000000000e+003) (100, 2.19391584396362300000e-001) (101, 1.50000000000000000000e+003) (102, 1.50000000000000000000e+003) (103, 9.93238830566406250000e+000) (104, 8.42863082885742190000e+000) (105, 1.50000000000000000000e+003) (106, 1.42223745584487920000e-001) (107, 7.22126342773437500000e+002) (108, 1.50000000000000000000e+003) (109, 8.23979980468750000000e+002) (110, 3.81988734006881710000e-002) (111, 1.50000000000000000000e+003) (112, 1.44820556640625000000e+003) (113, -3.00033420324325560000e-001) (114, 1.50000000000000000000e+003) (115, -1.84401601552963260000e-001) (116, 3.71988326311111450000e-001) (117, -3.42230021953582760000e-001) (118, -1.34921312332153320000e-001) (119, -5.10146357119083400000e-002) (120, 5.75407043457031250000e+002) (121, 4.17710661888122560000e-001) (122, 1.02583181858062740000e+000) (123, 1.38673974609375000000e+003) (124, -6.21356368064880370000e-001) (125, -8.18997547030448910000e-002) (0, 6.33215570449829100000e+000) (1, 2.72964324951171880000e+001) (2, 4.17424291372299190000e-001) (3, 3.25819522142410280000e-001) (4, 7.87677288055419920000e-001) (5, 1.50000000000000000000e+003) (6, 4.93517965078353880000e-001) (7, 2.62360076904296880000e+001) (8, 4.04418319463729860000e-001) (9, 3.77948522567749020000e-001) (10, 2.99039393663406370000e-001) (11, -1.00696516036987300000e+001) (12, 3.49009490013122560000e+000) (13, 4.30160522460937500000e-001) (14, 1.50000000000000000000e+003) (15, 1.54168531298637390000e-001) (16, 1.50000000000000000000e+003) (17, 7.14609503746032710000e-001) (18, 2.25928831100463870000e+000) (19, -3.23845901489257810000e+001) (20, 5.48087537288665770000e-001) (21, 4.94634509086608890000e-001) (22, 1.50000000000000000000e+003) (23, 1.50000000000000000000e+003) (24, 2.52250137329101560000e+001) (25, 2.72574310302734380000e+001) (26, -7.40144348144531250000e+001) (27, -2.67027664184570310000e+001) (28, 1.20519483089447020000e+000) (29, 7.25489578247070310000e+001) (30, 2.70349349975585940000e+001) (31, 2.00593109130859370000e+002) (32, 1.50000000000000000000e+003) (33, 3.24487894773483280000e-001) (34, 1.50000000000000000000e+003) (35, 3.58852505683898930000e-001) (36, 1.23644076287746430000e-001) (37, 1.50000000000000000000e+003) (38, 7.58472442626953130000e-001) (39, 5.58910937979817390000e-003) (40, 6.95736467838287350000e-001) (41, 7.22845888137817380000e+000) (42, 2.63831405639648440000e+001) (43, 6.48219943046569820000e-001) (44, 7.42837548255920410000e-001) (45, 2.72632369995117190000e+001) (46, 1.50000000000000000000e+003) (47, 3.58455419540405270000e-001) (48, 7.58759081363677980000e-001) (49, 1.50000000000000000000e+003) (50, 8.45652043819427490000e-001) (51, 2.39033279418945310000e+002) (52, 2.62915194034576420000e-001) (53, 3.27160537242889400000e-001) (54, 2.31560707092285160000e-001) (55, 7.70848929882049560000e-001) (56, 1.50000000000000000000e+003) (57, 1.03785431385040280000e+000) (58, 1.50000000000000000000e+003) (59, 1.50000000000000000000e+003) (60, 7.53307640552520750000e-001) (61, 7.12818384170532230000e-001) (62, -6.38406133651733400000e+000) (63, 7.75414109230041500000e-001) (64, 1.62622320652008060000e+000) (65, 6.48265853524208070000e-002) (66, 5.05955755710601810000e-001) (67, 7.71203517913818360000e-001) (68, 7.72247612476348880000e-001) (69, 2.68261795043945310000e+001) (70, -2.67420959472656250000e+001) (71, 1.50000000000000000000e+003) (72, 1.50000000000000000000e+003) (73, 8.16700875759124760000e-001) (74, 1.50000000000000000000e+003) (75, 2.40400984883308410000e-001) (76, -2.65020732879638670000e+001) (77, 8.02047193050384520000e-001) (78, 2.72659988403320310000e+001) (79, -2.67909393310546880000e+001) (80, 1.50000000000000000000e+003) (81, 1.50000000000000000000e+003) (82, 7.95319616794586180000e-001) (83, 1.50000000000000000000e+003) (84, 2.54032820463180540000e-001) (85, -2.72014350891113280000e+001) (86, 2.68191605806350710000e-001) (87, 1.50000000000000000000e+003) (88, 1.50000000000000000000e+003) (89, 1.50000000000000000000e+003) (90, 3.68734747171401980000e-001) (91, -2.63703651428222660000e+001) (92, -2.67631835937500000000e+001) (93, 3.06668907403945920000e-001) (94, 4.24974727630615230000e+000) (95, 1.50000000000000000000e+003) (96, 3.31007599830627440000e-001) (97, 1.50000000000000000000e+003) (98, 2.69416732788085940000e+001) (99, -2.68266143798828130000e+001) (100, 7.50499069690704350000e-001) (101, 1.50000000000000000000e+003) (102, 1.50000000000000000000e+003) (103, 1.62612342834472660000e+001) (104, 1.52262411117553710000e+001) (105, 1.50000000000000000000e+003) (106, -6.79514254443347450000e-004) (107, -7.46323699951171870000e+001) (108, 1.50000000000000000000e+003) (109, 1.50000000000000000000e+003) (110, -3.64777445793151860000e-001) (111, 1.50000000000000000000e+003) (112, 1.50000000000000000000e+003) (113, 3.00182647705078130000e+001) (114, 1.50000000000000000000e+003) (115, 1.75736486911773680000e-001) (116, 3.81294637918472290000e-001) (117, 7.96881377696990970000e-001) (118, 2.72664844989776610000e-001) (119, 7.88679897785186770000e-001) (120, 1.20661842346191410000e+002) (121, 1.21011221408843990000e+000) (122, -9.68945312500000000000e+000) (123, 1.50000000000000000000e+003) (124, 2.67408818006515500000e-001) (125, 3.10659825801849370000e-001) (0, -1.34989291429519650000e-001) (1, 1.50000000000000000000e+003) (2, 5.79391658306121830000e-001) (3, 4.99459624290466310000e-001) (4, -1.49531841278076170000e-001) (5, 2.76816925048828120000e+002) (6, -6.44474565982818600000e-001) (7, 1.50000000000000000000e+003) (8, 7.97011077404022220000e-001) (9, 3.49039107561111450000e-001) (10, 4.23106819391250610000e-001) (11, 1.58470199584960940000e+002) (12, -7.05141663551330570000e-001) (13, 1.78995773196220400000e-001) (14, 7.73379440307617190000e+001) (15, 2.53347015380859370000e+000) (16, 7.75045089721679690000e+001) (17, -2.18390434980392460000e-001) (18, 3.72587479650974270000e-002) (19, 1.01574768066406250000e+002) (20, -4.77671235799789430000e-001) (21, 2.65981048345565800000e-001) (22, -1.78507781982421870000e+002) (23, -1.78488555908203120000e+002) (24, 1.50000000000000000000e+003) (25, 1.50000000000000000000e+003) (26, 1.50000000000000000000e+003) (27, 1.50000000000000000000e+003) (28, -5.73426008224487300000e+000) (29, 1.50000000000000000000e+003) (30, 1.50000000000000000000e+003) (31, -3.78426895141601560000e+001) (32, 1.50000000000000000000e+003) (33, 4.58001643419265750000e-001) (34, 1.50000000000000000000e+003) (35, 5.94871282577514650000e-001) (36, -2.71295857429504390000e+000) (37, 1.50000000000000000000e+003) (38, -3.98261129856109620000e-001) (39, 7.20012378692626950000e+000) (40, -1.40838646888732910000e+000) (41, -4.80440425872802730000e+000) (42, 1.50000000000000000000e+003) (43, 3.53674620389938350000e-001) (44, 2.70497292280197140000e-001) (45, 1.50000000000000000000e+003) (46, 7.66522827148437500000e+001) (47, 1.94007709622383120000e-001) (48, -3.33767533302307130000e-001) (49, 2.25842208862304690000e+001) (50, -4.03065741062164310000e-001) (51, 1.84748092651367190000e+002) (52, 6.19874060153961180000e-001) (53, -4.23427909612655640000e-001) (54, 6.66834831237792970000e-001) (55, -6.19142651557922360000e-001) (56, 1.50000000000000000000e+003) (57, -3.29705588519573210000e-002) (58, 1.50000000000000000000e+003) (59, 1.24119720458984370000e+002) (60, -3.19518625736236570000e-001) (61, 1.00863444805145260000e+000) (62, 9.03229832649230960000e-001) (63, -2.84240335226058960000e-001) (64, -4.22184288501739500000e-001) (65, 8.12481999397277830000e-001) (66, 7.95479476451873780000e-001) (67, -2.23929747939109800000e-001) (68, 6.09950602054595950000e-001) (69, 1.50000000000000000000e+003) (70, 1.50000000000000000000e+003) (71, 7.79041595458984370000e+001) (72, -2.46489410400390630000e+001) (73, -2.94650405645370480000e-001) (74, 2.32021179199218750000e+001) (75, -1.40283957123756410000e-001) (76, 1.50000000000000000000e+003) (77, 3.67731630802154540000e-001) (78, 1.50000000000000000000e+003) (79, 1.50000000000000000000e+003) (80, 7.78710479736328120000e+001) (81, -2.45336570739746090000e+001) (82, -3.54879319667816160000e-001) (83, 2.30636711120605470000e+001) (84, 2.28628963232040410000e-002) (85, 1.50000000000000000000e+003) (86, 4.80061471462249760000e-001) (87, 1.50000000000000000000e+003) (88, -2.33715744018554690000e+001) (89, -2.32225360870361330000e+001) (90, 5.63828229904174800000e-001) (91, 1.50000000000000000000e+003) (92, 1.50000000000000000000e+003) (93, 4.83595818281173710000e-001) (94, -9.33814430236816410000e+000) (95, 1.50000000000000000000e+003) (96, 1.49649858474731450000e-001) (97, 7.37747192382812500000e+001) (98, 1.50000000000000000000e+003) (99, 1.50000000000000000000e+003) (100, -5.13660311698913570000e-001) (101, 1.50000000000000000000e+003) (102, 1.50000000000000000000e+003) (103, -7.11687850952148440000e+001) (104, -2.41589736938476560000e+001) (105, -2.33952064514160160000e+001) (106, 1.32024347782135010000e+000) (107, 1.50000000000000000000e+003) (108, -2.34743499755859380000e+001) (109, 1.22524253845214840000e+002) (110, 1.49934637546539310000e+000) (111, -2.34055271148681640000e+001) (112, 2.77403503417968750000e+002) (113, 1.76866257190704350000e+000) (114, 2.25194091796875000000e+001) (115, -1.03224106132984160000e-001) (116, 5.46194493770599370000e-001) (117, -6.47429376840591430000e-002) (118, 3.13556820154190060000e-001) (119, 5.26565194129943850000e-001) (120, 5.13088798522949220000e+001) (121, 2.42064837366342540000e-002) (122, 2.36355514526367190000e+001) (123, -1.19885559082031250000e+002) (124, -1.30028389394283290000e-002) (125, 5.49398422241210940000e-001) (0, -3.11660408973693850000e-001) (1, 1.50000000000000000000e+003) (2, -9.85492038726806640000e+000) (3, -1.11902256011962890000e+001) (4, -1.46838557720184330000e+000) (5, 7.07091857910156250000e+002) (6, -3.20687222480773930000e+000) (7, 1.50000000000000000000e+003) (8, -2.34226560592651370000e+000) (9, -9.53811109066009520000e-001) (10, -2.50530409812927250000e+000) (11, 8.22976150512695310000e+001) (12, 9.46900486946105960000e-001) (13, 1.75356216430664060000e+001) (14, 1.75268325805664060000e+002) (15, 6.11630260944366460000e-001) (16, 1.75362808227539060000e+002) (17, 6.55701217651367190000e+001) (18, 2.10996055603027340000e+000) (19, 2.38168978691101070000e+000) (20, 1.74237406253814700000e+000) (21, -1.35316152572631840000e+001) (22, -1.74485260009765620000e+002) (23, -1.74384078979492190000e+002) (24, 1.50000000000000000000e+003) (25, 1.50000000000000000000e+003) (26, 1.50000000000000000000e+003) (27, 1.50000000000000000000e+003) (28, -3.78875821828842160000e-001) (29, 1.50000000000000000000e+003) (30, 1.50000000000000000000e+003) (31, -3.75371932983398440000e+001) (32, 1.50000000000000000000e+003) (33, 5.61912345886230470000e+000) (34, 1.50000000000000000000e+003) (35, 1.65729007720947270000e+001) (36, 8.74622166156768800000e-001) (37, 1.50000000000000000000e+003) (38, -6.54968643188476560000e+000) (39, 1.71972841024398800000e-001) (40, -1.31568610668182370000e-001) (41, -8.30093669891357420000e+000) (42, 1.50000000000000000000e+003) (43, -3.46062541007995610000e+000) (44, 3.60704869031906130000e-001) (45, 1.50000000000000000000e+003) (46, 3.76010375976562500000e+002) (47, -9.19456005096435550000e-001) (48, 1.73196598887443540000e-001) (49, 3.26105728149414060000e+001) (50, 1.06738813221454620000e-001) (51, -3.50830411911010740000e+000) (52, -6.58001708984375000000e+000) (53, -3.54386186599731450000e+000) (54, 5.42794561386108400000e+000) (55, 1.39565429687500000000e+002) (56, 1.50000000000000000000e+003) (57, 3.26854562759399410000e+000) (58, 1.50000000000000000000e+003) (59, 5.39577026367187500000e+002) (60, 7.19017565250396730000e-001) (61, 1.39520387649536130000e+001) (62, 3.55034947395324710000e+000) (63, -1.78052921295166020000e+001) (64, 1.05931479483842850000e-002) (65, 4.21283292770385740000e+000) (66, 2.62092590332031250000e-001) (67, -3.53738474845886230000e+000) (68, 9.26801085472106930000e-001) (69, 1.50000000000000000000e+003) (70, 1.50000000000000000000e+003) (71, 5.04350158691406250000e+002) (72, -2.40965862274169920000e+001) (73, 1.05430161952972410000e+000) (74, 2.52163047790527340000e+001) (75, -2.54623770713806150000e-001) (76, 1.50000000000000000000e+003) (77, 1.57006275653839110000e+000) (78, 1.50000000000000000000e+003) (79, 1.50000000000000000000e+003) (80, 5.04235961914062500000e+002) (81, -2.40797824859619140000e+001) (82, 3.41000318527221680000e+000) (83, 2.42315101623535160000e+001) (84, -2.51681566238403320000e-001) (85, 1.50000000000000000000e+003) (86, -1.22617874145507810000e+001) (87, 1.50000000000000000000e+003) (88, -2.38634567260742190000e+001) (89, -2.38866748809814450000e+001) (90, 1.28852529525756840000e+001) (91, 1.50000000000000000000e+003) (92, 1.50000000000000000000e+003) (93, -1.31541070938110350000e+001) (94, -1.50132374837994580000e-002) (95, 1.50000000000000000000e+003) (96, 2.34562441706657410000e-001) (97, 1.74397949218750000000e+002) (98, 1.50000000000000000000e+003) (99, 1.50000000000000000000e+003) (100, -5.76322674751281740000e-001) (101, 1.50000000000000000000e+003) (102, 1.50000000000000000000e+003) (103, 1.95583522319793700000e+000) (104, -2.53110766410827640000e+000) (105, -2.40038108825683590000e+001) (106, -3.60325455665588380000e+000) (107, 1.50000000000000000000e+003) (108, -2.39644508361816410000e+001) (109, 1.25376380920410160000e+002) (110, 7.22871601581573490000e-001) (111, -2.40005035400390630000e+001) (112, 5.80972045898437500000e+002) (113, -2.41468048095703120000e+000) (114, 2.24302764892578120000e+002) (115, 9.09910678863525390000e+000) (116, 1.92722377777099610000e+001) (117, -5.78482627868652340000e+000) (118, 8.43996107578277590000e-002) (119, -2.32813104987144470000e-001) (120, 1.37881933593750000000e+003) (121, 2.38379731774330140000e-001) (122, 4.02841567993164060000e-001) (123, 2.06875915527343750000e+001) (124, 2.93409943580627440000e+000) (125, -1.22035417556762700000e+001) (0, 1.38663679361343380000e-001) (1, 2.38401336669921880000e+001) (2, 2.86696255207061770000e-001) (3, -3.40110212564468380000e-001) (4, 4.96475845575332640000e-001) (5, 1.50000000000000000000e+003) (6, 4.95319873094558720000e-001) (7, 2.10534896850585940000e+001) (8, -1.95055866241455080000e+000) (9, -8.42802643775939940000e-001) (10, 3.33631426095962520000e-001) (11, -2.50304393768310550000e+001) (12, 2.77626228332519530000e+000) (13, 4.00912463665008540000e-001) (14, 1.50000000000000000000e+003) (15, -5.59602260589599610000e-001) (16, 1.50000000000000000000e+003) (17, -1.95503070950508120000e-001) (18, 3.41300696134567260000e-001) (19, -3.31632461547851560000e+001) (20, -2.46806770563125610000e-001) (21, -2.60330294258892540000e-003) (22, 1.50000000000000000000e+003) (23, 1.50000000000000000000e+003) (24, 1.89662017822265620000e+001) (25, 2.36486511230468750000e+001) (26, -7.92852630615234380000e+001) (27, -2.36486663818359380000e+001) (28, 3.13096547126770020000e+000) (29, 7.46702270507812500000e+001) (30, 2.29226150512695310000e+001) (31, 2.00701416015625000000e+002) (32, 1.50000000000000000000e+003) (33, 2.81971484422683720000e-001) (34, 1.50000000000000000000e+003) (35, -4.39504653215408330000e-001) (36, 3.34169316291809080000e+000) (37, 1.50000000000000000000e+003) (38, 3.25035452842712400000e-001) (39, -1.73555910587310790000e+000) (40, 2.41733342409133910000e-001) (41, 2.12317633628845210000e+000) (42, 2.13433990478515620000e+001) (43, -8.69112387299537660000e-002) (44, -5.68047771230340000000e-003) (45, 2.34012451171875000000e+001) (46, 1.50000000000000000000e+003) (47, 3.79389971494674680000e-001) (48, 6.77010238170623780000e-001) (49, 1.50000000000000000000e+003) (50, 3.85575711727142330000e-001) (51, 1.06390045166015620000e+002) (52, -3.69292795658111570000e-001) (53, 3.94895315170288090000e-001) (54, -4.84267115592956540000e-001) (55, 6.90740406513214110000e-001) (56, 1.50000000000000000000e+003) (57, 6.83185398578643800000e-001) (58, 1.50000000000000000000e+003) (59, 1.50000000000000000000e+003) (60, 2.51141935586929320000e-001) (61, 6.71566307544708250000e-001) (62, -3.37571072578430180000e+000) (63, 4.03857082128524780000e-001) (64, 7.81620204448699950000e-001) (65, -2.25235521793365480000e-001) (66, -4.47528436779975890000e-002) (67, 3.30331772565841670000e-001) (68, 1.50193989276885990000e-001) (69, 2.28025054931640630000e+001) (70, -2.37967300415039060000e+001) (71, 1.50000000000000000000e+003) (72, 1.50000000000000000000e+003) (73, 2.40389741957187650000e-002) (74, 1.50000000000000000000e+003) (75, 2.48091787099838260000e-001) (76, -2.29340267181396480000e+001) (77, 1.51576682925224300000e-001) (78, 2.37167205810546870000e+001) (79, -2.38187637329101560000e+001) (80, 1.50000000000000000000e+003) (81, 1.50000000000000000000e+003) (82, 1.10940299928188320000e-001) (83, 1.50000000000000000000e+003) (84, -1.22568584978580470000e-001) (85, -2.47529754638671880000e+001) (86, 3.27932626008987430000e-001) (87, 1.50000000000000000000e+003) (88, 1.50000000000000000000e+003) (89, 1.50000000000000000000e+003) (90, -5.85082530975341800000e-001) (91, -2.28690681457519530000e+001) (92, -2.36666336059570310000e+001) (93, -3.36125522851943970000e-001) (94, 2.86619830131530760000e+000) (95, 1.50000000000000000000e+003) (96, -1.84396669268608090000e-001) (97, 1.50000000000000000000e+003) (98, 2.26894912719726560000e+001) (99, -2.36735000610351560000e+001) (100, 3.52881699800491330000e-001) (101, 1.50000000000000000000e+003) (102, 1.50000000000000000000e+003) (103, 2.72143769264221190000e+000) (104, 3.00970697402954100000e+000) (105, 1.50000000000000000000e+003) (106, -5.79762399196624760000e-001) (107, -8.10358734130859380000e+001) (108, 1.50000000000000000000e+003) (109, 1.50000000000000000000e+003) (110, -1.27404630184173580000e+000) (111, 1.50000000000000000000e+003) (112, 1.50000000000000000000e+003) (113, -7.64229869842529300000e+000) (114, 1.50000000000000000000e+003) (115, 4.89829957485198970000e-001) (116, -2.84660011529922490000e-001) (117, 9.02661383152008060000e-001) (118, -6.99718475341796880000e-001) (119, 2.07765087485313420000e-001) (120, 1.19704757690429690000e+002) (121, 5.22253930568695070000e-001) (122, -2.26791739463806150000e+000) (123, 1.50000000000000000000e+003) (124, 2.70469933748245240000e-001) (125, 2.27847650647163390000e-001) (0, -6.97889551520347600000e-002) (1, 2.53363647460937500000e+001) (2, -1.80706572532653810000e+000) (3, -2.03026890754699710000e+000) (4, -1.73418426513671870000e+000) (5, 1.50000000000000000000e+003) (6, -5.46219618991017340000e-003) (7, 2.55615310668945310000e+001) (8, -9.93186950683593750000e+001) (9, 5.35790696740150450000e-002) (10, -7.24541306495666500000e-001) (11, -4.03860425949096680000e+000) (12, -7.64567375183105470000e-001) (13, 1.74334734678268430000e-001) (14, 1.50000000000000000000e+003) (15, -9.47754178196191790000e-003) (16, 1.50000000000000000000e+003) (17, 1.04537153244018550000e+001) (18, 2.28639751672744750000e-001) (19, -3.88263397216796880000e+001) (20, 7.05562159419059750000e-002) (21, -2.33521962165832520000e+000) (22, 1.50000000000000000000e+003) (23, 1.50000000000000000000e+003) (24, 2.61339263916015620000e+001) (25, 2.50099792480468750000e+001) (26, -7.53262023925781250000e+001) (27, -2.37736053466796880000e+001) (28, -3.96642498672008510000e-002) (29, 7.55324554443359370000e+001) (30, 2.49664459228515630000e+001) (31, 4.53214355468750000000e+002) (32, 1.50000000000000000000e+003) (33, -1.06917726993560790000e+000) (34, 1.50000000000000000000e+003) (35, -3.16363215446472170000e+000) (36, 2.41640016436576840000e-001) (37, 1.50000000000000000000e+003) (38, -5.28208911418914790000e-001) (39, -1.56473493576049800000e+000) (40, 9.33317467570304870000e-002) (41, 2.51087522506713870000e+000) (42, 2.47638702392578130000e+001) (43, -4.48506563901901250000e-001) (44, -2.88418233394622800000e-001) (45, 2.53563995361328120000e+001) (46, 1.50000000000000000000e+003) (47, -7.18619301915168760000e-002) (48, 1.28319710493087770000e-001) (49, 1.50000000000000000000e+003) (50, -1.48379623889923100000e+000) (51, 2.11396713256835940000e+002) (52, -2.29418635368347170000e+000) (53, 5.37212014198303220000e-001) (54, 3.38753089308738710000e-002) (55, -8.29809755086898800000e-002) (56, 1.50000000000000000000e+003) (57, 1.04069197177886960000e+000) (58, 1.50000000000000000000e+003) (59, 1.50000000000000000000e+003) (60, 6.64699971675872800000e-001) (61, 1.53155341744422910000e-001) (62, -7.09648361206054690000e+001) (63, 1.61294266581535340000e-001) (64, 6.53447434306144710000e-002) (65, 5.61881124973297120000e-001) (66, -3.64361226558685300000e-001) (67, 1.58457547426223750000e-001) (68, -1.18777312338352200000e-001) (69, 2.49555206298828130000e+001) (70, -2.37974319458007810000e+001) (71, 1.50000000000000000000e+003) (72, 1.50000000000000000000e+003) (73, -5.03515899181365970000e-001) (74, 1.50000000000000000000e+003) (75, -4.47886884212493900000e-002) (76, -2.33472537994384770000e+001) (77, -5.67138902842998500000e-002) (78, 2.54951934814453130000e+001) (79, -2.38125000000000000000e+001) (80, 1.50000000000000000000e+003) (81, 1.50000000000000000000e+003) (82, -3.41600447893142700000e-001) (83, 1.50000000000000000000e+003) (84, -2.46275991201400760000e-001) (85, -2.55710201263427730000e+001) (86, -1.86997807025909420000e+000) (87, 1.50000000000000000000e+003) (88, 1.50000000000000000000e+003) (89, 1.50000000000000000000e+003) (90, -4.34266052246093750000e+001) (91, -2.33367919921875000000e+001) (92, -2.37650756835937500000e+001) (93, -4.93071913719177250000e-001) (94, 1.20055228471755980000e-001) (95, 1.50000000000000000000e+003) (96, -8.94520401954650880000e-001) (97, 1.50000000000000000000e+003) (98, 2.49357452392578130000e+001) (99, -2.36767578125000000000e+001) (100, 2.10302069783210750000e-001) (101, 1.50000000000000000000e+003) (102, 1.50000000000000000000e+003) (103, 5.17221498489379880000e+000) (104, 4.61113309860229490000e+000) (105, 1.50000000000000000000e+003) (106, -7.79148340225219730000e-002) (107, -3.26644134521484380000e+001) (108, 1.50000000000000000000e+003) (109, 1.50000000000000000000e+003) (110, -1.37654678344726560000e+002) (111, 1.50000000000000000000e+003) (112, 1.50000000000000000000e+003) (113, 5.46241998672485350000e-001) (114, 1.50000000000000000000e+003) (115, 1.64694115519523620000e-001) (116, -4.26674515008926390000e-001) (117, -3.52663785219192500000e-001) (118, -2.39380225539207460000e-001) (119, -2.02360190451145170000e-002) (120, 7.38127517700195310000e+001) (121, -3.61543327569961550000e-001) (122, -1.14918127059936520000e+001) (123, 1.50000000000000000000e+003) (124, -5.42312049865722660000e+001) (125, -1.91279423236846920000e+000) (0, -4.33462500572204590000e-001) (1, 1.50000000000000000000e+003) (2, -2.90889702737331390000e-002) (3, 5.85621356964111330000e-001) (4, 9.45915728807449340000e-002) (5, 2.76926177978515620000e+002) (6, -7.70825386047363280000e-001) (7, 1.50000000000000000000e+003) (8, 1.01277518272399900000e+000) (9, 4.38683748245239260000e-001) (10, -1.44167765974998470000e-001) (11, 1.59500244140625000000e+002) (12, -7.80415356159210210000e-001) (13, -7.58540779352188110000e-002) (14, 7.75155029296875000000e+001) (15, 2.55231022834777830000e+000) (16, 7.74301071166992190000e+001) (17, -1.78481191396713260000e-002) (18, 3.80600243806838990000e-001) (19, 1.01546691894531250000e+002) (20, -5.27263820171356200000e-001) (21, 3.71694624423980710000e-001) (22, -1.78447570800781250000e+002) (23, -1.78441818237304690000e+002) (24, 1.50000000000000000000e+003) (25, 1.50000000000000000000e+003) (26, 1.50000000000000000000e+003) (27, 1.50000000000000000000e+003) (28, 2.92602062225341800000e-001) (29, 1.50000000000000000000e+003) (30, 1.50000000000000000000e+003) (31, -3.79360733032226560000e+001) (32, 1.50000000000000000000e+003) (33, 4.76892679929733280000e-001) (34, 1.50000000000000000000e+003) (35, 4.43619400262832640000e-001) (36, -1.74451112747192380000e+000) (37, 1.50000000000000000000e+003) (38, -3.91420334577560420000e-001) (39, 6.28321552276611330000e+000) (40, 1.62846788763999940000e-001) (41, -1.14046087265014650000e+001) (42, 1.50000000000000000000e+003) (43, 2.59824186563491820000e-001) (44, 2.72245705127716060000e-001) (45, 1.50000000000000000000e+003) (46, 7.65292510986328120000e+001) (47, -1.64638370275497440000e-001) (48, -2.79226541519165040000e-001) (49, 2.24908523559570310000e+001) (50, -3.95540595054626460000e-001) (51, 1.84804290771484370000e+002) (52, 4.58357274532318120000e-001) (53, -1.54764279723167420000e-002) (54, 4.77557927370071410000e-001) (55, -6.49501442909240720000e-001) (56, 1.50000000000000000000e+003) (57, 1.80669903755187990000e-001) (58, 1.50000000000000000000e+003) (59, 1.23975234985351560000e+002) (60, -6.65613263845443730000e-002) (61, 9.54095840454101560000e-001) (62, 1.01611244678497310000e+000) (63, -2.77460217475891110000e-001) (64, -1.03503119945526120000e+000) (65, 7.17999339103698730000e-001) (66, 8.95322263240814210000e-001) (67, -1.52189299464225770000e-001) (68, 5.87171971797943120000e-001) (69, 1.50000000000000000000e+003) (70, 1.50000000000000000000e+003) (71, 7.79730987548828130000e+001) (72, -2.45784873962402340000e+001) (73, -2.04287946224212650000e-001) (74, 2.32250728607177730000e+001) (75, -9.31847468018531800000e-002) (76, 1.50000000000000000000e+003) (77, 2.40429431200027470000e-001) (78, 1.50000000000000000000e+003) (79, 1.50000000000000000000e+003) (80, 7.78544311523437500000e+001) (81, -2.46272964477539060000e+001) (82, -3.69179874658584590000e-001) (83, 2.29695854187011720000e+001) (84, -1.81615967303514480000e-002) (85, 1.50000000000000000000e+003) (86, 5.85125148296356200000e-001) (87, 1.50000000000000000000e+003) (88, -2.32935447692871090000e+001) (89, -2.32149124145507810000e+001) (90, 5.62142789363861080000e-001) (91, 1.50000000000000000000e+003) (92, 1.50000000000000000000e+003) (93, 5.31280100345611570000e-001) (94, -3.14637336730957030000e+001) (95, 1.50000000000000000000e+003) (96, 1.76945909857749940000e-001) (97, 7.38133850097656250000e+001) (98, 1.50000000000000000000e+003) (99, 1.50000000000000000000e+003) (100, -6.09566867351531980000e-001) (101, 1.50000000000000000000e+003) (102, 1.50000000000000000000e+003) (103, -2.45391941070556640000e+001) (104, -2.42273941040039060000e+001) (105, -2.33863563537597660000e+001) (106, 1.18218207359313960000e+000) (107, 1.50000000000000000000e+003) (108, -2.34451389312744140000e+001) (109, 1.22610656738281250000e+002) (110, 1.18464100360870360000e+000) (111, -2.34260215759277340000e+001) (112, 2.77357788085937500000e+002) (113, -8.16180825233459470000e-001) (114, 2.25009307861328130000e+001) (115, 1.47027045488357540000e-001) (116, 5.82598447799682620000e-001) (117, -2.38040126860141750000e-002) (118, 2.00249433517456050000e-001) (119, 3.30684691667556760000e-001) (120, 5.13452415466308590000e+001) (121, 1.02429144084453580000e-001) (122, 9.33206024169921880000e+001) (123, -1.19852813720703120000e+002) (124, -4.08874824643135070000e-002) (125, 4.85905438661575320000e-001) (0, 1.83181202411651610000e+000) (1, 2.37284088134765630000e+001) (2, -1.87318041920661930000e-001) (3, 4.86753368750214580000e-003) (4, -5.60356497764587400000e-001) (5, 1.50000000000000000000e+003) (6, 3.50331336259841920000e-001) (7, 2.11495513916015630000e+001) (8, -1.00126487731933590000e+002) (9, -8.91094028949737550000e-001) (10, 2.24881365895271300000e-001) (11, -5.91383209228515620000e+001) (12, 2.74406623840332030000e+000) (13, 3.84793937206268310000e-001) (14, 1.50000000000000000000e+003) (15, -6.75065219402313230000e-001) (16, 1.50000000000000000000e+003) (17, -1.46595597267150880000e-001) (18, -1.31145811080932620000e+000) (19, -3.30927810668945310000e+001) (20, -5.18273162841796870000e+000) (21, -4.85634617507457730000e-003) (22, 1.50000000000000000000e+003) (23, 1.50000000000000000000e+003) (24, 1.88255844116210940000e+001) (25, 2.37555541992187500000e+001) (26, -7.92141265869140620000e+001) (27, -2.37789382934570310000e+001) (28, 4.04385423660278320000e+000) (29, 7.45820312500000000000e+001) (30, 2.29799194335937500000e+001) (31, 2.00713317871093750000e+002) (32, 1.50000000000000000000e+003) (33, -7.53992438316345210000e-001) (34, 1.50000000000000000000e+003) (35, -9.19659316539764400000e-001) (36, 8.38966846466064450000e-001) (37, 1.50000000000000000000e+003) (38, 2.61612534523010250000e-001) (39, -1.48388719558715820000e+001) (40, 1.72612279653549190000e-001) (41, 3.60509455204010010000e-001) (42, 2.13762207031250000000e+001) (43, 3.68939223699271680000e-003) (44, -1.21526345610618590000e-002) (45, 2.34449157714843750000e+001) (46, 1.50000000000000000000e+003) (47, 3.12096595764160160000e-001) (48, 7.77913570404052730000e-001) (49, 1.50000000000000000000e+003) (50, -2.98620402812957760000e-001) (51, 6.76864852905273440000e+001) (52, -3.04038214683532710000e+000) (53, 4.61161196231842040000e-001) (54, 1.37344866991043090000e-001) (55, 6.07079446315765380000e-001) (56, 1.50000000000000000000e+003) (57, 1.22511483728885650000e-001) (58, 1.50000000000000000000e+003) (59, 1.50000000000000000000e+003) (60, 4.39050942659378050000e-001) (61, 8.15609276294708250000e-001) (62, -1.41002883911132810000e+001) (63, 3.54912936687469480000e-001) (64, 7.99387574195861820000e-001) (65, -4.02302980422973630000e-001) (66, -7.66804069280624390000e-002) (67, 3.75948816537857060000e-001) (68, -2.35351160168647770000e-001) (69, 2.27878875732421880000e+001) (70, -2.36384353637695310000e+001) (71, 1.50000000000000000000e+003) (72, 1.50000000000000000000e+003) (73, 8.99988878518342970000e-003) (74, 1.50000000000000000000e+003) (75, -7.02555358409881590000e-001) (76, -2.30198307037353520000e+001) (77, -1.96576461195945740000e-001) (78, 2.36940765380859380000e+001) (79, -2.37260284423828130000e+001) (80, 1.50000000000000000000e+003) (81, 1.50000000000000000000e+003) (82, 9.40274521708488460000e-002) (83, 1.50000000000000000000e+003) (84, -6.19542837142944340000e+000) (85, -2.47853507995605470000e+001) (86, 2.53357708454132080000e-001) (87, 1.50000000000000000000e+003) (88, 1.50000000000000000000e+003) (89, 1.50000000000000000000e+003) (90, -1.07162599563598630000e+001) (91, -2.28830204010009770000e+001) (92, -2.37607269287109370000e+001) (93, -7.17501640319824220000e-001) (94, 1.04640328884124760000e+000) (95, 1.50000000000000000000e+003) (96, -3.41744810342788700000e-001) (97, 1.50000000000000000000e+003) (98, 2.26464767456054690000e+001) (99, -2.36425704956054690000e+001) (100, 2.35133334994316100000e-001) (101, 1.50000000000000000000e+003) (102, 1.50000000000000000000e+003) (103, 6.25130712985992430000e-001) (104, 6.62131309509277340000e-001) (105, 1.50000000000000000000e+003) (106, -4.42720681428909300000e-001) (107, -8.11514282226562500000e+001) (108, 1.50000000000000000000e+003) (109, 1.50000000000000000000e+003) (110, -3.49383926391601560000e+000) (111, 1.50000000000000000000e+003) (112, 1.50000000000000000000e+003) (113, 8.65474605560302730000e+000) (114, 1.50000000000000000000e+003) (115, -9.32027697563171390000e-001) (116, -1.41367197036743160000e-001) (117, 8.86792242527008060000e-001) (118, -5.72394943237304690000e+000) (119, 2.48354092240333560000e-001) (120, 1.19782333374023440000e+002) (121, 4.92363989353179930000e-001) (122, -1.00776882171630860000e+001) (123, 1.50000000000000000000e+003) (124, 2.44298726320266720000e-001) (125, 3.35877180099487300000e-001) (0, -1.71960010528564450000e+001) (1, 1.50000000000000000000e+003) (2, -2.88672834634780880000e-001) (3, -1.49432837963104250000e-001) (4, 9.93404537439346310000e-002) (5, 2.76839355468750000000e+002) (6, -1.80675655603408810000e-001) (7, 1.50000000000000000000e+003) (8, -7.66048356890678410000e-002) (9, -1.34278750419616700000e+000) (10, -3.50986182689666750000e-001) (11, 3.64788513183593750000e+002) (12, -2.54497081041336060000e-001) (13, -1.43005609512329100000e-001) (14, 7.73864059448242190000e+001) (15, 3.35435628890991210000e-001) (16, 7.74391937255859380000e+001) (17, -3.66284549236297610000e-001) (18, 7.12364673614501950000e-001) (19, 3.50290322303771970000e+000) (20, 9.57410335540771480000e-002) (21, 2.77488023042678830000e-001) (22, -1.78520355224609370000e+002) (23, -1.78517486572265620000e+002) (24, 1.50000000000000000000e+003) (25, 1.50000000000000000000e+003) (26, 1.50000000000000000000e+003) (27, 1.50000000000000000000e+003) (28, -8.63807296752929690000e+001) (29, 1.50000000000000000000e+003) (30, 1.50000000000000000000e+003) (31, -1.84474277496337890000e+001) (32, 1.50000000000000000000e+003) (33, -8.00321921706199650000e-002) (34, 1.50000000000000000000e+003) (35, -7.30620771646499630000e-002) (36, -1.93651437759399410000e+000) (37, 1.50000000000000000000e+003) (38, -6.36240005493164060000e-001) (39, 1.18743538856506350000e+000) (40, 1.00731503963470460000e+000) (41, -4.58285255432128910000e+001) (42, 1.50000000000000000000e+003) (43, 8.71033817529678340000e-002) (44, 3.02099376916885380000e-001) (45, 1.50000000000000000000e+003) (46, 7.65585250854492190000e+001) (47, -5.79508841037750240000e-001) (48, -3.72299075126647950000e-001) (49, 2.26253356933593750000e+001) (50, -7.23443210124969480000e-001) (51, 7.50672302246093750000e+001) (52, -1.18059061467647550000e-001) (53, -1.43673315644264220000e-001) (54, 1.48711070418357850000e-001) (55, -1.51024162769317630000e-001) (56, 1.50000000000000000000e+003) (57, 1.35634737014770510000e+001) (58, 1.50000000000000000000e+003) (59, 1.24144668579101560000e+002) (60, -3.35644483566284180000e-001) (61, 1.17901802062988280000e+000) (62, 4.20462379455566410000e+001) (63, -4.10252898931503300000e-001) (64, -4.71968203783035280000e-001) (65, 4.38086897134780880000e-001) (66, 7.30724096298217770000e-001) (67, -2.26064667105674740000e-001) (68, 5.36010265350341800000e-001) (69, 1.50000000000000000000e+003) (70, 1.50000000000000000000e+003) (71, 7.79851226806640630000e+001) (72, -2.46269130706787110000e+001) (73, 2.61160492897033690000e-001) (74, 2.32810173034667970000e+001) (75, -1.04556255042552950000e-001) (76, 1.50000000000000000000e+003) (77, 4.04195398092269900000e-001) (78, 1.50000000000000000000e+003) (79, 1.50000000000000000000e+003) (80, 7.78505020141601560000e+001) (81, -2.46503391265869140000e+001) (82, 3.20292055606842040000e-001) (83, 2.29545040130615230000e+001) (84, -2.45992854237556460000e-001) (85, 1.50000000000000000000e+003) (86, -1.01242527365684510000e-001) (87, 1.50000000000000000000e+003) (88, -2.33888168334960940000e+001) (89, -2.31999168395996090000e+001) (90, -2.95556988567113880000e-002) (91, 1.50000000000000000000e+003) (92, 1.50000000000000000000e+003) (93, -1.17574229836463930000e-001) (94, -1.97231693267822270000e+001) (95, 1.50000000000000000000e+003) (96, 1.29340831190347670000e-002) (97, 7.36761932373046880000e+001) (98, 1.50000000000000000000e+003) (99, 1.50000000000000000000e+003) (100, -2.32096576690673830000e+000) (101, 1.50000000000000000000e+003) (102, 1.50000000000000000000e+003) (103, -5.66208000183105470000e+001) (104, -7.22977066040039060000e+001) (105, -2.34590377807617190000e+001) (106, 1.29159307479858400000e+000) (107, 1.50000000000000000000e+003) (108, -2.33468360900878910000e+001) (109, 1.22619621276855470000e+002) (110, 2.73166441917419430000e+000) (111, -2.34376068115234380000e+001) (112, 2.77474121093750000000e+002) (113, -1.06647217273712160000e+000) (114, 2.25941696166992190000e+001) (115, 2.59485561400651930000e-002) (116, 6.10119402408599850000e-001) (117, 5.62683418393135070000e-002) (118, -2.14283108711242680000e-001) (119, 3.15603345632553100000e-001) (120, 1.23281738281250000000e+002) (121, 4.72447425127029420000e-001) (122, -5.65380156040191650000e-001) (123, -1.19820373535156250000e+002) (124, 1.82259026914834980000e-002) (125, -5.37755005061626430000e-002) (0, -2.63565778732299800000e-001) (1, 2.48391799926757810000e+001) (2, 3.07326585054397580000e-001) (3, 8.07350575923919680000e-002) (4, -5.91228604316711430000e-001) (5, 1.50000000000000000000e+003) (6, 2.91657447814941410000e-001) (7, 2.44182586669921880000e+001) (8, -2.43209576606750490000e+000) (9, 1.55559852719306950000e-001) (10, 3.49129557609558110000e-001) (11, -3.99121427536010740000e+000) (12, 1.46920159459114070000e-001) (13, 4.89829719066619870000e-001) (14, 1.50000000000000000000e+003) (15, 1.73958376049995420000e-001) (16, 1.50000000000000000000e+003) (17, 1.08090486526489260000e+001) (18, -1.00090646743774410000e+000) (19, -3.83569641113281250000e+001) (20, -7.70200937986373900000e-002) (21, -3.02175164222717290000e-001) (22, 1.50000000000000000000e+003) (23, 1.50000000000000000000e+003) (24, 2.51231460571289060000e+001) (25, 2.74431762695312500000e+001) (26, -7.61590423583984380000e+001) (27, -2.40159149169921880000e+001) (28, 1.35818395614624020000e+001) (29, 7.50955963134765620000e+001) (30, 2.42131500244140620000e+001) (31, 3.09253204345703120000e+002) (32, 1.50000000000000000000e+003) (33, 4.26389783620834350000e-001) (34, 1.50000000000000000000e+003) (35, -1.73974072933197020000e+000) (36, 2.25615482330322270000e+001) (37, 1.50000000000000000000e+003) (38, 3.84668916463851930000e-001) (39, 6.51361048221588130000e-002) (40, 1.03695666790008540000e+000) (41, 6.69991540908813480000e+000) (42, 2.40754699707031250000e+001) (43, -1.84372588992118840000e-001) (44, 1.21537402272224430000e-001) (45, -4.62168502807617190000e+000) (46, 1.50000000000000000000e+003) (47, 6.89289808273315430000e-001) (48, 4.03207331895828250000e-001) (49, 1.50000000000000000000e+003) (50, 1.70448109507560730000e-001) (51, 1.98942352294921870000e+002) (52, -3.97009760141372680000e-001) (53, 7.32334434986114500000e-001) (54, 4.32175308465957640000e-001) (55, -9.77924242615699770000e-002) (56, 1.50000000000000000000e+003) (57, 5.20680904388427730000e+000) (58, 1.50000000000000000000e+003) (59, 1.50000000000000000000e+003) (60, 1.72852301597595210000e+000) (61, -3.32585185766220090000e-001) (62, -1.82987396240234370000e+002) (63, 5.32377839088439940000e-001) (64, 8.63010704517364500000e-001) (65, -1.02475094795227050000e+000) (66, -2.30030626058578490000e-001) (67, 4.38378036022186280000e-001) (68, -3.61419886350631710000e-001) (69, 2.70707931518554690000e+001) (70, -2.39862594604492190000e+001) (71, 1.50000000000000000000e+003) (72, 1.50000000000000000000e+003) (73, -9.34529677033424380000e-002) (74, 1.50000000000000000000e+003) (75, 3.69143217802047730000e-001) (76, -2.36795692443847660000e+001) (77, -4.18343126773834230000e-001) (78, 2.74295196533203130000e+001) (79, -2.39515075683593750000e+001) (80, 1.50000000000000000000e+003) (81, 1.50000000000000000000e+003) (82, 7.42693766951560970000e-002) (83, 1.50000000000000000000e+003) (84, 2.10368111729621890000e-001) (85, -2.48000659942626950000e+001) (86, 3.76321464776992800000e-001) (87, 1.50000000000000000000e+003) (88, 1.50000000000000000000e+003) (89, 1.50000000000000000000e+003) (90, -1.03505792617797850000e+001) (91, -2.37362403869628910000e+001) (92, -2.39780349731445310000e+001) (93, 3.71330678462982180000e-001) (94, 3.72406333684921260000e-001) (95, 1.50000000000000000000e+003) (96, -5.10840296745300290000e-001) (97, 1.50000000000000000000e+003) (98, 2.70418090820312500000e+001) (99, -2.40452728271484380000e+001) (100, -3.38854454457759860000e-002) (101, 1.50000000000000000000e+003) (102, 1.50000000000000000000e+003) (103, 5.91751527786254880000e+000) (104, 4.44688510894775390000e+000) (105, 1.50000000000000000000e+003) (106, 1.81383639574050900000e-001) (107, -6.42750625610351560000e+001) (108, 1.50000000000000000000e+003) (109, 1.50000000000000000000e+003) (110, -9.22197151184082030000e+000) (111, 1.50000000000000000000e+003) (112, 1.50000000000000000000e+003) (113, -4.65425348281860350000e+000) (114, 1.50000000000000000000e+003) (115, 1.45741164684295650000e+000) (116, -1.10132686793804170000e-001) (117, 1.82631179690361020000e-001) (118, 1.62168800830841060000e-001) (119, -4.47949260473251340000e-001) (120, 2.79992309570312500000e+002) (121, -6.51482269167900090000e-002) (122, -5.51797342300415040000e+000) (123, 1.50000000000000000000e+003) (124, -1.31396636962890620000e+002) (125, 2.39169418811798100000e-001) (0, -1.68511600494384770000e+001) (1, 1.50000000000000000000e+003) (2, -2.09029652178287510000e-002) (3, -1.99672490358352660000e-001) (4, 1.63354963064193730000e-001) (5, 2.76926330566406250000e+002) (6, -1.57379478216171260000e-001) (7, 1.50000000000000000000e+003) (8, -4.31426279246807100000e-002) (9, -1.30695216357707980000e-002) (10, -2.63026416301727290000e-001) (11, 3.71423583984375000000e+002) (12, -2.27055758237838750000e-001) (13, -2.51014493405818940000e-002) (14, 7.74996032714843750000e+001) (15, -3.25808256864547730000e-001) (16, 7.74271545410156250000e+001) (17, 2.46005848050117490000e-001) (18, 7.56314337253570560000e-001) (19, 3.72878932952880860000e+000) (20, -3.35545390844345090000e-002) (21, 4.30047661066055300000e-001) (22, -1.78455795288085940000e+002) (23, -1.78524505615234370000e+002) (24, 1.50000000000000000000e+003) (25, 1.50000000000000000000e+003) (26, 1.50000000000000000000e+003) (27, 1.50000000000000000000e+003) (28, -1.82403427124023440000e+002) (29, 1.50000000000000000000e+003) (30, 1.50000000000000000000e+003) (31, -1.85157489776611330000e+001) (32, 1.50000000000000000000e+003) (33, -4.09215763211250310000e-002) (34, 1.50000000000000000000e+003) (35, 1.63692384958267210000e-002) (36, -1.33525121212005620000e+000) (37, 1.50000000000000000000e+003) (38, -7.89168834686279300000e-001) (39, 1.10771262645721440000e+000) (40, 5.88683664798736570000e-001) (41, -4.57575721740722660000e+001) (42, 1.50000000000000000000e+003) (43, 2.94290244579315190000e-001) (44, 2.47423112392425540000e-001) (45, 1.50000000000000000000e+003) (46, 7.67055053710937500000e+001) (47, -6.13542869687080380000e-002) (48, -3.37435752153396610000e-001) (49, 2.24825286865234380000e+001) (50, -9.88411307334899900000e-001) (51, 7.50321044921875000000e+001) (52, -1.94596409797668460000e-001) (53, -1.53500854969024660000e-001) (54, 6.13025538623332980000e-002) (55, -2.38805517554283140000e-001) (56, 1.50000000000000000000e+003) (57, -6.00236244201660160000e+001) (58, 1.50000000000000000000e+003) (59, 1.24120468139648440000e+002) (60, -2.40243956446647640000e-001) (61, 1.23528635501861570000e+000) (62, 4.21110496520996090000e+001) (63, -3.95742505788803100000e-001) (64, -4.80727732181549070000e-001) (65, 3.35273146629333500000e-001) (66, 9.18263912200927730000e-001) (67, -9.69776585698127750000e-002) (68, 6.74077928066253660000e-001) (69, 1.50000000000000000000e+003) (70, 1.50000000000000000000e+003) (71, 7.79643936157226560000e+001) (72, -2.46601963043212890000e+001) (73, 3.29837322235107420000e-001) (74, 2.33212337493896480000e+001) (75, -6.85628131031990050000e-002) (76, 1.50000000000000000000e+003) (77, 2.30123475193977360000e-001) (78, 1.50000000000000000000e+003) (79, 1.50000000000000000000e+003) (80, 7.80240478515625000000e+001) (81, -2.47047691345214840000e+001) (82, 3.75107765197753910000e-001) (83, 2.30447311401367190000e+001) (84, -2.68612414598464970000e-001) (85, 1.50000000000000000000e+003) (86, -5.50385564565658570000e-002) (87, 1.50000000000000000000e+003) (88, -2.34387779235839840000e+001) (89, -2.30430450439453130000e+001) (90, -4.33371029794216160000e-002) (91, 1.50000000000000000000e+003) (92, 1.50000000000000000000e+003) (93, -2.19932198524475100000e-002) (94, -1.97217903137207030000e+001) (95, 1.50000000000000000000e+003) (96, 1.49162802845239640000e-002) (97, 7.36933059692382810000e+001) (98, 1.50000000000000000000e+003) (99, 1.50000000000000000000e+003) (100, -1.11478912830352780000e+000) (101, 1.50000000000000000000e+003) (102, 1.50000000000000000000e+003) (103, -6.94303970336914060000e+001) (104, -5.28080482482910160000e+001) (105, -2.33451633453369140000e+001) (106, 1.14652526378631590000e+000) (107, 1.50000000000000000000e+003) (108, -2.33294410705566410000e+001) (109, 1.22527732849121090000e+002) (110, 9.15369093418121340000e-001) (111, -2.34724521636962890000e+001) (112, 2.77330505371093750000e+002) (113, -2.15001836419105530000e-001) (114, 2.25552444458007810000e+001) (115, -2.24656984210014340000e-002) (116, 5.57618558406829830000e-001) (117, -2.15124785900115970000e-002) (118, -2.32356131076812740000e-001) (119, 2.68017560243606570000e-001) (120, 1.10040611267089840000e+002) (121, 2.03546613454818730000e-001) (122, -3.76379132270812990000e-001) (123, -1.19736816406250000000e+002) (124, 2.24889032542705540000e-002) (125, 5.08391335606575010000e-002) (0, -9.21052873134613040000e-001) (1, 2.37574768066406250000e+001) (2, 2.29168877005577090000e-001) (3, -2.84994810819625850000e-001) (4, -1.30668193101882930000e-001) (5, 1.50000000000000000000e+003) (6, 5.43901264667510990000e-001) (7, 2.10456848144531250000e+001) (8, -5.27395248413085940000e-001) (9, -3.00029486417770390000e-001) (10, 3.52313041687011720000e-001) (11, -2.49117145538330080000e+001) (12, 2.72013425827026370000e+000) (13, 4.13082897663116460000e-001) (14, 1.50000000000000000000e+003) (15, 3.14854860305786130000e-001) (16, 1.50000000000000000000e+003) (17, 2.87065565586090090000e-001) (18, -4.50840979814529420000e-001) (19, -3.30016555786132810000e+001) (20, -2.49378228187561040000e+000) (21, -1.05099633336067200000e-001) (22, 1.50000000000000000000e+003) (23, 1.50000000000000000000e+003) (24, 1.88829421997070310000e+001) (25, 2.37117233276367190000e+001) (26, -7.92367858886718750000e+001) (27, -2.37398223876953130000e+001) (28, 4.23664903640747070000e+000) (29, 7.45464630126953120000e+001) (30, 2.28700332641601560000e+001) (31, 2.00595947265625000000e+002) (32, 1.50000000000000000000e+003) (33, -3.72619748115539550000e-001) (34, 1.50000000000000000000e+003) (35, -5.36087632179260250000e-001) (36, 3.02614903450012210000e+000) (37, 1.50000000000000000000e+003) (38, 6.07612431049346920000e-001) (39, -1.20166826248168950000e+000) (40, 6.41073167324066160000e-001) (41, 1.12994050979614260000e+000) (42, 2.14422378540039060000e+001) (43, 4.03946638107299800000e-002) (44, 1.23174145817756650000e-001) (45, 2.33775405883789060000e+001) (46, 1.50000000000000000000e+003) (47, 3.54699939489364620000e-001) (48, 7.45278060436248780000e-001) (49, 1.50000000000000000000e+003) (50, 5.97589194774627690000e-001) (51, 2.37397674560546870000e+002) (52, -3.09901744127273560000e-001) (53, 3.68000954389572140000e-001) (54, -1.18440650403499600000e-001) (55, 7.28472352027893070000e-001) (56, 1.50000000000000000000e+003) (57, 1.07407128810882570000e+000) (58, 1.50000000000000000000e+003) (59, 1.50000000000000000000e+003) (60, 3.71478915214538570000e-001) (61, 7.51748263835906980000e-001) (62, -3.43720746040344240000e+000) (63, 5.40565609931945800000e-001) (64, 7.86283314228057860000e-001) (65, -8.21042180061340330000e-001) (66, 5.00817239284515380000e-001) (67, 6.14986121654510500000e-001) (68, 2.83489376306533810000e-001) (69, 2.26543960571289060000e+001) (70, -2.37183303833007810000e+001) (71, 1.50000000000000000000e+003) (72, 1.50000000000000000000e+003) (73, 1.41354098916053770000e-001) (74, 1.50000000000000000000e+003) (75, 2.21680536866188050000e-001) (76, -2.28709297180175780000e+001) (77, 1.84567585587501530000e-001) (78, 2.37639694213867190000e+001) (79, -2.36613006591796880000e+001) (80, 1.50000000000000000000e+003) (81, 1.50000000000000000000e+003) (82, 4.96792644262313840000e-002) (83, 1.50000000000000000000e+003) (84, 4.01336699724197390000e-002) (85, -2.47574615478515630000e+001) (86, -2.18883320689201350000e-001) (87, 1.50000000000000000000e+003) (88, 1.50000000000000000000e+003) (89, 1.50000000000000000000e+003) (90, -3.55162769556045530000e-001) (91, -2.28440856933593750000e+001) (92, -2.36715850830078130000e+001) (93, -1.54641717672348020000e-001) (94, 2.87341260910034180000e+000) (95, 1.50000000000000000000e+003) (96, -1.53424471616745000000e-001) (97, 1.50000000000000000000e+003) (98, 2.26617279052734380000e+001) (99, -2.37095184326171880000e+001) (100, 3.83779406547546390000e-001) (101, 1.50000000000000000000e+003) (102, 1.50000000000000000000e+003) (103, 9.91174042224884030000e-001) (104, 1.08505713939666750000e+000) (105, 1.50000000000000000000e+003) (106, -5.44136106967926030000e-001) (107, -8.11401672363281250000e+001) (108, 1.50000000000000000000e+003) (109, 1.50000000000000000000e+003) (110, -7.50481784343719480000e-001) (111, 1.50000000000000000000e+003) (112, 1.50000000000000000000e+003) (113, -1.14419879913330080000e+001) (114, 1.50000000000000000000e+003) (115, 3.94847035408020020000e-001) (116, -2.88750857114791870000e-001) (117, 1.95276820659637450000e+000) (118, -7.72212967276573180000e-002) (119, 2.36537307500839230000e-001) (120, 2.76501220703125000000e+002) (121, 5.03046154975891110000e-001) (122, -2.18705773353576660000e+000) (123, 1.50000000000000000000e+003) (124, 1.05267867445945740000e-001) (125, -3.15056741237640380000e-001) (0, 1.95047199726104740000e-001) (1, 1.50000000000000000000e+003) (2, 1.06912195682525630000e-001) (3, -1.15742437541484830000e-001) (4, 5.80489225685596470000e-002) (5, 3.73435638427734370000e+002) (6, -1.93883538246154790000e-001) (7, 1.50000000000000000000e+003) (8, -1.22910708189010620000e-001) (9, -4.99355196952819820000e-001) (10, 1.42820551991462710000e-001) (11, 2.76287784576416020000e+001) (12, 2.61645227670669560000e-001) (13, 1.34274438023567200000e-001) (14, 7.61854248046875000000e+001) (15, 5.97169935703277590000e-001) (16, 7.62223434448242190000e+001) (17, -6.90043494105339050000e-002) (18, 2.54718947410583500000e+000) (19, 9.06500976562500000000e+002) (20, 3.43501329421997070000e-001) (21, -6.33727252483367920000e-001) (22, -1.75915161132812500000e+002) (23, -1.75975616455078120000e+002) (24, 1.50000000000000000000e+003) (25, 1.50000000000000000000e+003) (26, 1.50000000000000000000e+003) (27, 1.50000000000000000000e+003) (28, -3.21809463202953340000e-002) (29, 1.50000000000000000000e+003) (30, 1.50000000000000000000e+003) (31, -3.72485580444335940000e+001) (32, 1.50000000000000000000e+003) (33, 2.21590757369995120000e-001) (34, 1.50000000000000000000e+003) (35, -3.06873202323913570000e-001) (36, 5.19546508789062500000e-001) (37, 1.50000000000000000000e+003) (38, -5.49483299255371090000e-002) (39, -4.81829583644866940000e-001) (40, -9.86725091934204100000e-003) (41, -8.34069728851318360000e+000) (42, 1.50000000000000000000e+003) (43, 2.44009196758270260000e-002) (44, -9.11058425903320310000e-001) (45, 1.50000000000000000000e+003) (46, 7.60977935791015630000e+001) (47, 1.48510590195655820000e-001) (48, -1.18021711707115170000e-001) (49, 3.61273307800292970000e+001) (50, 2.54915833473205570000e-001) (51, 2.04725814819335940000e+002) (52, -5.23598372936248780000e-001) (53, 6.99470639228820800000e-002) (54, -4.35922503471374510000e-001) (55, 8.66253077983856200000e-001) (56, 1.50000000000000000000e+003) (57, -1.11592039465904240000e-001) (58, 1.50000000000000000000e+003) (59, 3.24522796630859370000e+002) (60, -2.79571801424026490000e-001) (61, 1.77465558052062990000e+000) (62, 5.08709167480468750000e+002) (63, 1.23553603887557980000e-001) (64, -2.91473299264907840000e-001) (65, 1.91071546077728270000e+000) (66, 1.58524602651596070000e-001) (67, 2.18579679727554320000e-001) (68, 5.21221935749053960000e-001) (69, 1.50000000000000000000e+003) (70, 1.50000000000000000000e+003) (71, 3.76346191406250000000e+002) (72, -2.39589729309082030000e+001) (73, 8.76904185861349110000e-003) (74, 2.41970500946044920000e+001) (75, 2.85545736551284790000e-001) (76, 1.50000000000000000000e+003) (77, 1.59016922116279600000e-001) (78, 1.50000000000000000000e+003) (79, 1.50000000000000000000e+003) (80, 3.76363159179687500000e+002) (81, -2.39933280944824220000e+001) (82, -2.83606886863708500000e-001) (83, 2.45212364196777340000e+001) (84, 1.54414027929306030000e-001) (85, 1.50000000000000000000e+003) (86, 3.08563172817230220000e-001) (87, 1.50000000000000000000e+003) (88, -2.37243576049804690000e+001) (89, -2.38677253723144530000e+001) (90, 3.11140686273574830000e-001) (91, 1.50000000000000000000e+003) (92, 1.50000000000000000000e+003) (93, -4.18929219245910640000e-001) (94, -3.91972929239273070000e-001) (95, 1.50000000000000000000e+003) (96, 5.58005094528198240000e-001) (97, 7.21976165771484380000e+001) (98, 1.50000000000000000000e+003) (99, 1.50000000000000000000e+003) (100, 3.20423901081085210000e-001) (101, 1.50000000000000000000e+003) (102, 1.50000000000000000000e+003) (103, -7.65581130981445310000e+000) (104, -7.90207052230834960000e+000) (105, -2.37658863067626950000e+001) (106, -1.06905354186892510000e-002) (107, 1.50000000000000000000e+003) (108, -2.39001884460449220000e+001) (109, 1.24155273437500000000e+002) (110, 5.83159303665161130000e+000) (111, -2.38163871765136720000e+001) (112, 4.43754913330078120000e+002) (113, -7.34640479087829590000e-001) (114, 2.43179931640625000000e+001) (115, 2.19091248512268070000e+000) (116, -2.85201787948608400000e-001) (117, 1.63344949483871460000e-001) (118, 2.05112028121948240000e+000) (119, -4.06391695141792300000e-002) (120, 6.76815246582031250000e+002) (121, -1.82803254574537280000e-002) (122, 5.74486589431762700000e+000) (123, -7.13709182739257810000e+001) (124, 1.10215735435485840000e+000) (125, 3.67748975753784180000e-001) (0, -4.99382019042968750000e+000) (1, 1.50000000000000000000e+003) (2, -1.45745322108268740000e-001) (3, -6.42567873001098630000e-002) (4, 2.63024624437093730000e-002) (5, 2.76856384277343750000e+002) (6, -1.20174266397953030000e-001) (7, 1.50000000000000000000e+003) (8, 7.93096572160720830000e-002) (9, -1.12157709896564480000e-001) (10, -3.12027305364608760000e-001) (11, 1.55207977294921870000e+002) (12, -8.76085162162780760000e-001) (13, -8.76521766185760500000e-002) (14, 7.73988952636718750000e+001) (15, 1.74498307704925540000e+000) (16, 7.75004730224609380000e+001) (17, 2.69208461046218870000e-001) (18, 3.55154901742935180000e-001) (19, 3.88505172729492190000e+001) (20, -4.68992255628108980000e-002) (21, 3.16927224397659300000e-001) (22, -1.78371154785156250000e+002) (23, -1.78384979248046870000e+002) (24, 1.50000000000000000000e+003) (25, 1.50000000000000000000e+003) (26, 1.50000000000000000000e+003) (27, 1.50000000000000000000e+003) (28, -7.03642425537109380000e+001) (29, 1.50000000000000000000e+003) (30, 1.50000000000000000000e+003) (31, -1.85811004638671880000e+001) (32, 1.50000000000000000000e+003) (33, -1.53508940711617470000e-002) (34, 1.50000000000000000000e+003) (35, 6.98875188827514650000e-001) (36, -8.08338260650634770000e+000) (37, 1.50000000000000000000e+003) (38, -1.66143447160720830000e-001) (39, 1.10255980491638180000e+000) (40, 8.40245604515075680000e-001) (41, -1.16696777343750000000e+001) (42, 1.50000000000000000000e+003) (43, 4.08939212560653690000e-001) (44, 1.70572713017463680000e-001) (45, 1.50000000000000000000e+003) (46, 7.66484603881835940000e+001) (47, -6.00973665714263920000e-002) (48, -3.82778763771057130000e-001) (49, 2.25695343017578130000e+001) (50, -9.60856914520263670000e-001) (51, 7.00069961547851560000e+001) (52, -3.68714937940239910000e-003) (53, -1.54332339763641360000e-001) (54, -7.97579213976860050000e-002) (55, -1.18261918425560000000e-001) (56, 1.50000000000000000000e+003) (57, 2.72445201873779300000e+000) (58, 1.50000000000000000000e+003) (59, 1.24065170288085940000e+002) (60, -3.47414702177047730000e-001) (61, 1.25846147537231450000e+000) (62, 9.42193450927734380000e+001) (63, -1.07077047228813170000e-001) (64, -5.16456723213195800000e-001) (65, 3.56635451316833500000e-001) (66, 6.90206468105316160000e-001) (67, 5.68786561489105220000e-002) (68, 6.15154564380645750000e-001) (69, 1.50000000000000000000e+003) (70, 1.50000000000000000000e+003) (71, 7.79252014160156250000e+001) (72, -2.46151332855224610000e+001) (73, 3.66275399923324580000e-001) (74, 2.32347335815429690000e+001) (75, -1.12932035699486730000e-003) (76, 1.50000000000000000000e+003) (77, 2.83624857664108280000e-001) (78, 1.50000000000000000000e+003) (79, 1.50000000000000000000e+003) (80, 7.79208221435546870000e+001) (81, -2.46609706878662110000e+001) (82, 2.60343164205551150000e-001) (83, 2.28823471069335940000e+001) (84, -1.09513491392135620000e-001) (85, 1.50000000000000000000e+003) (86, -1.29454657435417180000e-002) (87, 1.50000000000000000000e+003) (88, -2.33897495269775390000e+001) (89, -2.31636619567871090000e+001) (90, -4.65293973684310910000e-002) (91, 1.50000000000000000000e+003) (92, 1.50000000000000000000e+003) (93, -6.55988976359367370000e-002) (94, -2.22964630126953130000e+001) (95, 1.50000000000000000000e+003) (96, 3.40635359287261960000e-001) (97, 7.37124938964843750000e+001) (98, 1.50000000000000000000e+003) (99, 1.50000000000000000000e+003) (100, -4.82530385255813600000e-001) (101, 1.50000000000000000000e+003) (102, 1.50000000000000000000e+003) (103, -2.45793666839599610000e+001) (104, -2.41736335754394530000e+001) (105, -2.33096961975097660000e+001) (106, 1.32527279853820800000e+000) (107, 1.50000000000000000000e+003) (108, -2.32954063415527340000e+001) (109, 1.22648521423339840000e+002) (110, 3.79167348146438600000e-001) (111, -2.32782688140869140000e+001) (112, 2.77444641113281250000e+002) (113, 1.34868904948234560000e-001) (114, 2.25539703369140620000e+001) (115, -4.13524433970451350000e-002) (116, 3.65327060222625730000e-001) (117, 1.03535130620002750000e-001) (118, 5.34157156944274900000e-001) (119, 3.13996225595474240000e-001) (120, 9.88476715087890630000e+001) (121, 9.05799306929111480000e-003) (122, 3.66814136505126950000e-001) (123, -1.19758239746093750000e+002) (124, -2.71097403019666670000e-002) (125, -9.40184518694877620000e-002) (0, -3.34312534332275390000e+000) (1, 9.00411682128906250000e+002) (2, 4.09928464889526370000e+000) (3, -3.58683276176452640000e+000) (4, -8.35134582519531250000e+001) (5, 1.33698547363281250000e+003) (6, -1.14868056774139400000e+000) (7, 8.99956970214843750000e+002) (8, -1.04255695343017580000e+001) (9, -2.01093602180480960000e+000) (10, -9.95625495910644530000e+000) (11, -3.59242706298828130000e+001) (12, -1.26693534851074220000e+000) (13, -2.09011539816856380000e-001) (14, 1.40970910644531250000e+003) (15, 1.74799907207489010000e+000) (16, 1.40742150878906250000e+003) (17, 5.37709617614746090000e+000) (18, 1.04584121704101560000e+000) (19, 3.67098358154296870000e+002) (20, 2.87951469421386720000e-001) (21, -7.25195007324218750000e+001) (22, 9.19878906250000000000e+002) (23, 1.01983959960937500000e+003) (24, 1.33203649902343750000e+003) (25, 1.10370397949218750000e+003) (26, 1.50000000000000000000e+003) (27, 1.50000000000000000000e+003) (28, -2.68583703041076660000e+000) (29, 1.50000000000000000000e+003) (30, 1.09998632812500000000e+003) (31, 1.05356127929687500000e+003) (32, 1.50000000000000000000e+003) (33, -2.25382089614868160000e+000) (34, 1.50000000000000000000e+003) (35, -4.46424436569213870000e+000) (36, -8.59049037098884580000e-002) (37, 1.50000000000000000000e+003) (38, 4.35596580505371090000e+001) (39, -5.58283448219299320000e-001) (40, 1.48455607891082760000e+000) (41, -2.75548249483108520000e-001) (42, 9.99782043457031250000e+002) (43, 2.22118115425109860000e+000) (44, -4.17573064565658570000e-001) (45, 1.05932006835937500000e+003) (46, 1.45000000000000000000e+003) (47, 8.45890522003173830000e-001) (48, -7.45582655072212220000e-002) (49, 6.87601440429687500000e+002) (50, -8.94087255001068120000e-001) (51, 9.10061096191406250000e+002) (52, -7.23454296588897710000e-001) (53, -2.14418601989746090000e+000) (54, -1.12928152084350590000e+000) (55, 7.00346660614013670000e+000) (56, 1.50000000000000000000e+003) (57, 4.02650451660156250000e+000) (58, 1.50000000000000000000e+003) (59, 1.40000000000000000000e+003) (60, 6.29210770130157470000e-001) (61, -1.92337676882743840000e-001) (62, 1.27717792987823490000e+000) (63, -3.47095036506652830000e+000) (64, 1.08630645275115970000e+000) (65, -3.85125398635864260000e-001) (66, -7.56260752677917480000e-001) (67, -3.82676553726196290000e+000) (68, -8.26968729496002200000e-001) (69, 1.50000000000000000000e+003) (70, 1.50000000000000000000e+003) (71, 1.45000000000000000000e+003) (72, 1.21857922363281250000e+003) (73, -8.50487172603607180000e-001) (74, 9.75692077636718750000e+002) (75, 4.45925518870353700000e-002) (76, 9.76291503906250000000e+002) (77, -1.05159926414489750000e+000) (78, 1.50000000000000000000e+003) (79, 1.50000000000000000000e+003) (80, 1.45000000000000000000e+003) (81, 1.21844299316406250000e+003) (82, -8.05473744869232180000e-001) (83, 9.75868286132812500000e+002) (84, -6.26360485330224040000e-003) (85, 9.75252197265625000000e+002) (86, 7.26328325271606450000e+000) (87, 1.50000000000000000000e+003) (88, 1.31879248046875000000e+003) (89, 1.21878186035156250000e+003) (90, 8.57633304595947270000e+000) (91, 9.76251220703125000000e+002) (92, 1.50000000000000000000e+003) (93, -4.04564285278320310000e+000) (94, -1.41911864280700680000e-001) (95, 1.50000000000000000000e+003) (96, -1.33047842979431150000e+000) (97, 1.36318286132812500000e+003) (98, 1.50000000000000000000e+003) (99, 1.50000000000000000000e+003) (100, 9.17415523529052730000e+000) (101, 1.50000000000000000000e+003) (102, 1.50000000000000000000e+003) (103, 4.02116864919662480000e-001) (104, 1.12738266587257390000e-001) (105, 1.21868200683593750000e+003) (106, 8.52193984985351560000e+001) (107, 1.04759521484375000000e+003) (108, 1.21874279785156250000e+003) (109, 3.50040588378906250000e+002) (110, -4.78370618820190430000e+000) (111, 1.21868505859375000000e+003) (112, 1.49472045898437500000e+003) (113, -5.16431665420532230000e+000) (114, 1.26156347656250000000e+003) (115, 7.61125981807708740000e-001) (116, -1.59042522311210630000e-001) (117, -2.46667551994323730000e+000) (118, 2.58634299039840700000e-001) (119, -8.04169998168945310000e+001) (120, 8.91344055175781250000e+002) (121, -4.37419176101684570000e-001) (122, 1.78909927606582640000e-001) (123, 7.52787841796875000000e+002) (124, -5.90397405624389650000e+000) (125, 7.22448873519897460000e+000) (0, -2.64234905242919920000e+001) (1, 1.50000000000000000000e+003) (2, -1.44271716475486760000e-001) (3, -7.60734975337982180000e-002) (4, 1.41252741217613220000e-001) (5, 2.76941375732421870000e+002) (6, -1.93975493311882020000e-001) (7, 1.50000000000000000000e+003) (8, -1.59392535686492920000e-001) (9, -6.45233243703842160000e-002) (10, -1.56988024711608890000e-001) (11, 3.71306182861328130000e+002) (12, -8.42794775962829590000e-001) (13, -8.29329416155815120000e-002) (14, 7.73869934082031250000e+001) (15, 3.71437758207321170000e-001) (16, 7.74400634765625000000e+001) (17, -2.45592772960662840000e-001) (18, 5.37828326225280760000e-001) (19, 8.13720321655273440000e+000) (20, -3.40245217084884640000e-002) (21, 3.68796616792678830000e-001) (22, -1.78511779785156250000e+002) (23, -1.78495208740234370000e+002) (24, 1.50000000000000000000e+003) (25, 1.50000000000000000000e+003) (26, 1.50000000000000000000e+003) (27, 1.50000000000000000000e+003) (28, -2.95518371582031250000e+002) (29, 1.50000000000000000000e+003) (30, 1.50000000000000000000e+003) (31, -1.86194782257080080000e+001) (32, 1.50000000000000000000e+003) (33, 7.38692730665206910000e-002) (34, 1.50000000000000000000e+003) (35, -7.17529579997062680000e-002) (36, -1.04327809810638430000e+000) (37, 1.50000000000000000000e+003) (38, -5.05768775939941410000e-001) (39, 1.08927857875823970000e+000) (40, 1.08825778961181640000e+000) (41, -4.57298164367675780000e+001) (42, 1.50000000000000000000e+003) (43, 2.72635132074356080000e-001) (44, 2.94385403394699100000e-001) (45, 1.50000000000000000000e+003) (46, 7.65695419311523440000e+001) (47, -3.83573621511459350000e-001) (48, -3.62100064754486080000e-001) (49,